5945 32
d 2.637782 -2.080518 32.204380 3.605723 29.409037 47.182735 -6.262372 -4.086785 -22.624517 -5.102690 26.180914 -12.216677 17.726196 -16.727005 -52.807766 11.660268 -23.124092 -34.420219 19.528418 -1.330828 14.711327 -6.234638 12.418240 -8.629587 -26.766813 6.530161 24.369253 -24.057186 -21.140728 16.007195 32.192520 13.482373
✕ 4.264790 11.390370 23.153755 -16.068850 20.549314 -16.589113 -1.831611 3.429509 -14.980638 -14.553569 39.107971 -14.200299 34.583210 -0.251492 -26.050365 7.055462 -22.988434 3.283774 8.712238 20.103153 5.338537 -0.195598 -6.840979 -26.731316 -17.797062 -22.666012 22.034575 -11.835873 -15.264909 32.404194 -39.806305 -11.416184
e 13.923114 -4.621163 28.972969 -22.709641 23.875937 23.957026 -8.662514 0.850792 -41.052517 -9.096745 28.005552 -10.906121 2.659456 -16.982853 -62.302608 17.443813 -24.002918 -4.046594 2.504706 -6.836148 4.745059 -4.287586 3.276363 -2.082519 -25.572649 13.281301 25.623098 -6.793277 -22.345472 28.097931 23.948877 21.361492
f 21.772844 -3.354214 55.579594 11.910370 8.642635 16.982246 -13.655436 11.694507 -0.720085 -32.090958 29.599438 6.229237 2.465631 -1.834724 -0.520777 23.953527 -7.844113 18.313921 12.824068 -17.353827 -0.798662 9.913207 0.172777 -7.385887 -26.307060 -6.987411 12.809739 2.908303 -40.326164 24.389740 -13.601845 30.958561
g 2.199035 -15.743180 38.750584 21.885746 34.234730 23.054546 -6.704246 4.516730 -8.672710 30.358938 24.797148 -18.357506 -1.184942 3.351761 -24.613796 5.258387 -28.974739 -9.481464 18.590284 13.117901 15.881735 -35.910515 39.180328 1.597872 10.531015 32.337685 11.826011 -31.044844 -8.227922 22.354227 10.630705 15.743771
h -15.528918 3.137176 17.823439 -18.690571 47.770573 22.577948 -7.802349 -17.521971 -7.829354 8.538479 38.544109 2.408993 30.779211 4.417032 -50.179298 7.377103 -28.695644 -30.344015 3.194367 -4.280157 7.165761 2.087920 4.387009 -11.382309 -12.203810 -5.540346 19.299000 -28.191860 17.606033 2.491493 5.211866 21.609797
i 26.987654 -2.611864 35.633484 -19.460836 1.125315 12.101927 3.685426 2.500213 10.873449 -13.630076 16.011414 -10.621202 -10.109756 -0.796027 -25.393707 41.499115 -17.958244 -15.175345 3.634926 -4.130027 9.418261 10.818329 7.207887 -2.914816 -25.688227 -16.547016 13.874147 10.277099 -26.270515 28.963261 -17.471773 7.216179
j 37.565773 -3.346494 40.139915 -10.914805 -2.065652 -2.484819 9.606893 19.245533 16.318344 -4.193668 6.883363 -15.342229 -23.233553 4.784723 -15.615842 46.959248 -13.334569 -12.553301 -1.829044 -5.281102 24.299091 -10.394556 25.856512 -8.502471 -11.437736 -3.004647 6.587245 8.040835 -24.097137 17.153332 -20.860691 1.233524
k -5.166714 -24.209650 19.565676 -12.268285 21.665205 -0.860894 -0.639202 -8.913774 -11.569986 18.481003 23.013502 5.945194 20.119738 -8.461688 -38.753258 -11.143218 -13.882440 -16.263086 15.464126 -1.252953 0.973484 15.206484 -2.709627 -32.762897 -4.878679 -5.559543 32.462917 -16.548717 8.270436 11.058582 -21.511305 11.226305
а 12.582402 11.348345 43.901409 -13.069545 29.800888 32.528160 -5.980633 9.486982 -31.954763 3.632078 24.156322 -14.439499 9.536947 11.454007 -24.694946 14.041404 -24.017582 -10.808084 22.143572 -14.885314 18.554985 -1.247674 7.284946 -24.120720 -24.620884 5.674602 30.404966 -13.120288 -9.422282 13.405331 -10.173258 34.837250
б 8.677085 0.588032 37.829205 0.529292 26.524282 26.294968 -18.053167 -21.358648 -15.028471 -8.469512 25.709499 6.284541 22.891735 -17.280336 -56.441647 17.899654 -20.227808 -21.983595 -2.316365 -8.379398 9.751371 -3.939740 8.720037 3.305401 -33.750214 36.602116 16.460791 -8.162223 -11.431327 9.476877 11.597294 15.042414
в 14.821483 4.857732 46.199734 -16.482738 20.138483 31.241852 -7.692046 -1.510379 -31.065969 13.725334 22.302528 -3.754120 11.476646 7.893661 -52.154861 9.195112 -21.053936 -5.977757 -9.935976 -1.890685 27.799946 4.516193 12.752296 -21.793797 -20.591265 6.332008 32.325756 -7.472683 -11.868032 8.790002 2.901592 26.113937
г 13.316278 -3.820972 36.410355 -6.098132 6.241466 2.563451 -10.541603 5.005805 -12.872753 -14.639981 36.223770 30.012901 2.120958 -16.142368 -22.054270 -10.821025 -29.525957 5.150300 18.612391 -8.664598 21.115189 23.378357 -1.958864 -11.459967 -22.064014 3.290946 37.299702 -7.279101 2.340404 15.046200 7.050196 23.266342
д -2.482221 -1.412266 45.786346 -6.291161 39.918549 3.720434 -35.501968 22.832987 -25.941072 2.157807 32.472233 -6.495791 18.036688 3.240102 -21.824612 -11.337323 -28.584202 -17.960878 32.192913 7.085809 37.925941 -18.468674 22.504255 5.121452 -8.388760 -11.388068 21.417978 -15.166672 -17.661667 5.668108 -1.044973 3.937036
е 13.923114 -4.621163 28.972969 -22.709641 23.875937 23.957026 -8.662514 0.850792 -41.052517 -9.096745 28.005552 -10.906121 2.659456 -16.982853 -62.302608 17.443813 -24.002918 -4.046594 2.504706 -6.836148 4.745059 -4.287586 3.276363 -2.082519 -25.572649 13.281301 25.623098 -6.793277 -22.345472 28.097931 23.948877 21.361492
ж 17.363768 5.933010 22.272810 -14.631180 39.202965 17.014477 10.151892 7.870697 -3.110809 -18.359711 13.188990 -28.158804 17.854778 3.998554 -31.390118 18.153309 -31.252239 -12.111955 17.614849 23.472326 17.283909 -14.920707 7.987728 -28.989420 -20.651281 -20.552055 16.932545 -3.147557 -19.501398 38.207245 -12.371141 -3.091163
з 21.042215 9.654048 45.007175 -8.811006 11.840357 27.665670 -14.739007 8.254600 -18.081659 4.195846 16.109329 -2.083133 -5.135893 -2.859927 -35.322052 12.908483 -23.352459 -2.057194 11.548930 -4.720869 18.974590 9.493501 8.685319 -18.937647 -32.012329 3.826064 25.188845 -2.576405 -16.873333 3.710615 -10.881857 24.285130
l 26.278574 0.376107 40.295540 -20.264177 5.323662 11.297398 8.141869 12.499671 10.018665 -22.489500 20.031256 -4.332402 -10.680538 -3.558838 -27.888660 44.956276 -21.851131 -14.959176 -1.436826 -3.547957 13.577229 15.370328 13.831188 7.900785 -23.391258 -17.548304 5.682250 15.287952 -22.430586 31.920441 -13.789234 9.660769
и -9.056258 -10.565114 30.362886 -14.050523 39.957714 38.810539 -10.015668 -11.333398 -4.395558 -7.088677 20.970858 -21.426918 21.310175 5.271843 -36.199650 15.716632 -10.031567 -9.484505 17.291395 18.689846 10.742580 -1.666384 -9.922055 -29.183821 1.674969 10.188396 27.545738 -47.904621 -14.280236 35.013580 -1.362337 10.355300
й -23.027845 -2.443564 31.875097 -21.473927 43.608555 35.909801 -15.424750 -10.156434 -5.488257 -8.799646 28.323969 -11.462643 29.792799 20.139297 -27.049841 12.280965 -7.708333 -11.482569 7.444921 -2.481902 5.580756 11.426787 -0.281504 -29.219484 -0.573491 10.762364 24.350454 -30.100025 -12.926415 12.035179 -18.387705 24.978848
к -2.509146 -20.225668 31.728025 -24.179859 23.315445 8.616373 9.695640 -15.936216 -20.314463 5.213665 24.683334 -13.684577 21.269840 -3.150995 -44.766529 0.926196 -11.619410 -6.096815 -0.826849 9.062885 14.890661 17.652531 -0.845257 -34.159763 4.211594 -14.881903 34.710003 -20.845734 -8.301574 21.728676 -10.758959 11.248457
л -12.510221 -0.332797 26.077806 -11.129702 34.548332 15.238323 -27.067133 -5.176904 -20.609375 -14.056011 23.409105 12.048749 21.667572 5.025756 -29.218193 -6.955548 -49.684719 -17.310230 29.891600 11.343388 23.002077 3.837984 9.195496 -9.192737 -13.321074 -2.044635 32.557747 -40.069855 12.159295 20.436701 11.683460 15.357389
м -4.271324 -7.715722 20.431778 -17.415308 31.088825 20.577923 -8.906974 -10.672701 13.591816 -18.154268 10.497328 -22.474058 19.048683 -25.495935 -36.351124 2.576137 -18.909325 3.297979 27.117790 28.716700 6.467468 -30.321510 -21.279009 -12.381204 -19.158995 4.164531 24.483454 -35.343094 -6.482414 40.440548 -4.596773 3.963719
н -10.784820 -10.068366 31.675999 -12.536900 40.536091 24.258362 2.521968 3.183568 -33.451611 13.754694 22.212526 -12.901902 17.409567 2.620607 -42.820187 14.811631 -25.071918 -25.004801 -3.654853 12.697057 4.058497 -5.721538 -2.492237 -12.457517 -3.127856 -8.065715 41.316010 -35.906708 4.616875 25.952450 0.633515 15.780048
о 10.066178 13.759384 30.328196 -5.457864 25.201880 34.805782 -11.802877 -11.596630 -18.236366 0.663191 38.956470 -1.020814 2.250030 -0.975177 -48.212002 6.909512 -25.037460 -17.336470 11.507503 -3.944049 19.781881 3.442703 14.311229 -6.770762 -27.323498 23.209042 26.538401 -19.031721 -19.097467 13.919807 6.581986 20.619909
п -9.991002 -1.990949 28.349205 -20.490162 40.817997 33.134998 -1.161472 -12.747523 -17.895832 10.819373 35.307453 2.200918 24.324265 6.319784 -46.135849 9.439389 -38.673168 -26.902725 13.124258 5.544146 18.560310 -0.659867 8.247699 -6.603592 -6.839614 -7.167027 36.949001 -36.765583 1.646170 24.784473 18.889830 20.845409
р -4.010618 1.381558 36.437908 6.687654 33.758617 21.516716 -12.237829 -10.513212 -3.117299 33.513126 49.993473 6.387146 9.939370 -13.491269 -38.802853 15.163272 -29.929462 -13.594297 -8.367146 7.296868 38.176949 -22.214825 23.427294 -15.566615 7.731011 15.913932 23.161489 -17.742699 12.617084 32.760826 5.846133 -3.668029
с 13.131490 -3.690411 29.457684 -19.378374 3.684012 8.680204 -19.577559 -2.890187 -26.746090 -16.214907 22.452459 11.449660 -7.467778 -20.439766 -61.620373 -5.229457 -30.851969 -7.074449 3.876115 5.435846 5.750501 22.623383 13.975121 0.574359 -39.051468 -2.709581 20.577545 -10.645478 -24.545898 13.312279 18.030970 19.878731
m 68.326935 -0.695983 12.841588 -30.805571 -15.448709 35.049980 13.133142 0.917824 13.253359 -19.720646 4.561998 -26.602526 35.724609 17.789852 -11.571859 7.219619 -12.497514 1.048738 19.817331 25.424515 11.903587 28.088133 -12.025277 -20.809999 1.022763 -30.645912 40.115505 20.954824 -13.845967 29.070026 -26.183210 28.983143
т 30.088182 -5.906610 46.093365 -28.373007 -3.873055 23.623224 13.066010 -0.673119 18.108744 -6.315438 11.133924 -15.052264 2.204125 -3.563819 -31.132088 32.395927 -24.686255 -11.389931 17.487169 4.136709 8.027150 7.752549 -4.432622 -20.202919 -35.321236 -18.239975 26.664116 1.980440 -26.279968 28.506372 -14.507797 23.875526
у 52.949757 1.249008 36.755505 5.695415 0.832383 0.351542 9.810154 21.389301 14.299132 15.915182 26.233931 -22.051537 -3.327710 -13.441904 -33.961025 -7.615774 2.945314 -7.361881 13.550041 4.666268 -5.288957 -14.276459 5.044983 -18.201181 -35.342079 0.089512 11.922422 13.725093 -24.192722 22.201485 -28.316702 1.648327
ф -1.163932 -14.217208 48.895092 -44.464500 12.466825 17.457912 -0.427073 7.280019 1.946145 2.900960 -0.156887 -2.326972 9.182550 6.507033 -15.532603 38.863960 -28.347580 21.487442 -1.196981 36.694073 26.656199 -9.208057 49.981987 13.643826 -33.013412 -1.380015 -8.388613 43.479813 -0.053040 35.476986 -51.658134 4.283720
х 13.382685 -14.606576 40.855831 -9.466727 23.876194 2.687335 -12.190997 0.216873 0.888683 3.053200 17.671694 -1.321379 13.405158 -11.056135 -19.843573 4.876934 -9.037870 6.117398 29.705557 4.955757 9.205999 13.686987 -14.965610 -28.655680 -4.661795 -18.031633 25.241133 -16.858629 -14.906106 28.386013 -29.759623 10.266422
ц -0.494688 1.832862 36.918514 -9.546777 47.569279 27.912270 -5.006950 9.235186 -19.682295 19.374470 42.860359 -22.700296 21.448853 -3.093657 -39.742344 16.095417 0.293521 -19.022160 27.482283 12.187699 18.655928 -22.537281 -0.935289 3.023729 -5.843239 -12.938327 18.320108 -25.456739 -18.904303 8.253037 -10.045879 11.310436
ч -4.237322 -2.453509 44.889759 6.479556 34.221802 23.904863 -1.987048 5.233130 -10.328426 8.654758 26.067041 -11.303333 17.630001 4.730139 -32.134098 0.645733 -5.595742 -14.041499 16.582638 29.021952 -1.059258 14.075081 -0.095875 7.851844 -16.739697 -5.701595 20.531158 -38.701183 -10.016559 15.424727 -17.617470 24.690872
ш 28.711164 -22.023653 9.731678 -28.541166 5.392416 26.382511 -7.827975 11.512894 -20.635786 -7.438776 -22.185995 21.282795 -7.142177 -21.003460 -36.665318 45.985470 -10.837183 12.408389 21.971693 8.103554 37.612808 14.300141 3.399500 -14.851298 -31.826151 -18.209921 26.589754 28.920736 -23.703064 37.662468 -38.143898 1.916902
щ 20.546602 -21.456377 17.516180 -20.303949 15.951319 14.228620 9.779606 11.735156 -12.566583 -12.133970 6.691554 9.223598 -10.910504 -15.107400 -29.153021 40.656563 -19.573427 8.935181 24.167398 11.875845 27.542969 8.713858 14.848886 -24.207096 -23.120758 -18.979862 31.807728 22.700012 -18.923374 36.217018 -40.722969 -13.670350
ъ 11.521201 -16.454315 31.920340 -9.665919 9.366504 13.750112 -27.641100 14.133452 -17.872366 -3.230247 9.972682 14.932509 -1.587526 -19.234060 -29.208248 -4.802652 -32.139565 4.389541 -1.349653 4.827016 23.065676 -3.919257 -6.536955 -6.233474 -34.358269 10.126397 28.143578 -7.256123 -9.837707 3.283126 -9.964405 31.242931
ы 14.696620 2.210621 9.227851 -11.606337 31.929152 11.905895 -3.972727 1.774365 -9.739101 2.685963 -7.103065 4.071865 -0.244108 -53.730015 -39.745655 23.762211 -4.659864 35.057720 18.354940 22.392330 27.200706 -21.024822 -5.755005 -10.859636 -44.082672 7.863429 24.324791 23.064701 -8.739980 29.621723 -27.358812 -0.443939
n -10.355725 2.085728 20.885796 -18.861055 45.202251 28.201460 -4.299833 -17.626020 -20.330004 3.092499 37.179314 -1.815654 17.413918 0.714660 -45.195492 4.644250 -32.777016 -27.120316 6.552976 4.957814 16.523472 4.070382 10.517565 -6.295825 -4.505170 -6.108193 28.944143 -33.171757 2.857823 16.016945 11.845639 19.324135
ь 10.106481 -12.269881 24.475677 -9.517833 16.377232 12.464468 -16.400387 1.808154 -30.765177 12.476980 11.795271 11.223928 -1.006309 -14.804331 -45.812756 4.347573 -24.416584 -5.175437 -8.910880 3.420799 25.129795 2.011735 1.967464 -7.882417 -22.841122 6.061946 32.946770 -4.714894 -3.273247 7.003237 -2.903969 18.965099
э 25.036980 13.781848 49.131645 -10.159932 21.498688 22.191711 -8.357048 14.373365 -16.191366 4.590268 22.910200 -8.266843 2.000877 -8.828684 -25.036800 10.812473 -25.431726 -3.248807 4.405078 -7.323534 23.503326 4.700033 -1.194251 -19.558226 -29.424715 5.787164 31.809444 1.872325 -7.434188 5.842935 -17.057119 22.014555
ю 3.802063 -6.799333 14.451379 -29.133436 3.370633 8.123182 -25.750843 5.946142 -20.946674 -39.823181 -3.938939 7.154727 9.053259 -21.587168 -30.859926 0.172495 -8.990611 39.975430 13.790708 21.146881 20.036530 9.594049 2.523002 9.552439 -55.996605 -2.751871 18.660593 13.292918 -3.343435 40.507530 -20.219231 25.304682
я -3.857097 1.767909 45.773319 8.857154 39.005245 31.495153 -20.393593 -0.062560 -11.192719 1.037584 18.728415 -1.944120 18.915194 6.315556 -21.961357 6.915447 -21.848982 -2.171093 20.420851 -1.445087 17.361252 24.399910 11.265594 -14.747113 -6.593654 -4.288666 30.935518 -26.038343 -2.855730 23.624184 -6.614349 28.485950
ё 13.722840 -8.671627 28.364853 -16.712702 25.497902 23.827862 -13.534389 -6.719965 -41.409153 -5.742705 28.786642 -10.923042 10.644335 -14.196257 -55.630795 19.981678 -19.867079 -11.634246 -4.086818 -21.374456 -6.570692 -11.823692 9.022769 -2.081225 -30.060335 13.464874 26.809225 -2.217844 -30.047482 24.739979 22.219110 22.161507
o 10.066178 13.759384 30.328196 -5.457864 25.201880 34.805782 -11.802877 -11.596630 -18.236366 0.663191 38.956470 -1.020814 2.250030 -0.975177 -48.212002 6.909512 -25.037460 -17.336470 11.507503 -3.944049 19.781881 3.442703 14.311229 -6.770762 -27.323498 23.209042 26.538401 -19.031721 -19.097467 13.919807 6.581986 20.619909
і 26.987654 -2.611864 35.633484 -19.460836 1.125315 12.101927 3.685426 2.500213 10.873449 -13.630076 16.011414 -10.621202 -10.109756 -0.796027 -25.393707 41.499115 -17.958244 -15.175345 3.634926 -4.130027 9.418261 10.818329 7.207887 -2.914816 -25.688227 -16.547016 13.874147 10.277099 -26.270515 28.963261 -17.471773 7.216179
ї 21.667814 2.325022 34.451015 -6.757896 8.802853 14.418538 -16.787745 8.214028 19.078135 -18.263206 23.989405 -6.383105 -5.497360 5.826200 -9.331701 48.362251 -7.314939 1.433417 2.027289 -10.653388 -6.204031 15.254907 -3.661478 -11.069317 -30.595909 -19.465656 11.164338 6.604846 -41.309147 20.063316 -21.574966 19.269644
ј 37.565773 -3.346494 40.139915 -10.914805 -2.065652 -2.484819 9.606893 19.245533 16.318344 -4.193668 6.883363 -15.342229 -23.233553 4.784723 -15.615842 46.959248 -13.334569 -12.553301 -1.829044 -5.281102 24.299091 -10.394556 25.856512 -8.502471 -11.437736 -3.004647 6.587245 8.040835 -24.097137 17.153332 -20.860691 1.233524
ћ -12.994440 -0.922863 25.272947 -17.654627 50.651363 20.455923 -10.781043 -17.156315 -10.984392 4.053682 44.195217 -2.364544 45.848251 5.632945 -45.594601 9.449492 -26.587368 -23.480631 -1.018635 -14.678623 13.096646 4.742721 15.981991 -4.738406 -16.722027 -3.448691 19.367689 -29.100376 16.836432 2.284264 11.333980 14.222880
p -4.010618 1.381558 36.437908 6.687654 33.758617 21.516716 -12.237829 -10.513212 -3.117299 33.513126 49.993473 6.387146 9.939370 -13.491269 -38.802853 15.163272 -29.929462 -13.594297 -8.367146 7.296868 38.176949 -22.214825 23.427294 -15.566615 7.731011 15.913932 23.161489 -17.742699 12.617084 32.760826 5.846133 -3.668029
q -10.330676 -15.665744 35.947010 11.899875 32.714901 24.632851 -9.539400 -3.107591 -4.257288 23.667950 35.684731 -16.658203 8.494584 -2.706749 -29.364882 13.130282 -29.581264 -16.501055 20.927402 14.757322 8.354397 -28.866743 28.127249 10.842904 -1.552638 19.547815 7.287017 -29.484352 -1.923481 35.544453 10.186207 10.379954
r 14.558907 -5.373450 37.795727 2.695277 4.479439 9.959510 -23.977652 12.242915 -5.520871 -32.692127 29.214291 11.112718 -4.799986 -13.931638 -13.037341 -2.156700 -19.984470 11.616025 19.967646 -9.014095 9.874699 26.985506 -10.629869 -16.767036 -25.702702 1.211449 24.850563 -0.851736 -16.800308 15.307295 -6.113730 20.598595
s 16.754339 4.441312 39.846828 -10.918236 9.575232 21.132015 -16.659693 -0.145698 -20.406151 -3.958162 8.533462 -0.580834 -5.049407 -7.456925 -46.497158 8.184538 -30.615173 -4.543614 9.617894 0.156073 18.984419 14.100685 12.106648 -15.369334 -34.374287 6.587977 26.312571 -3.586074 -22.602692 9.061083 3.660353 25.764711
t 23.303619 -5.455511 54.218803 -12.743569 -0.306362 15.537405 -23.288000 2.508456 -11.227381 -33.403915 21.447557 -3.684492 2.390104 -4.794184 -23.654850 19.557354 -10.364376 15.289265 9.229224 -0.856317 -5.896488 1.251437 4.315789 -0.303408 -34.478836 -9.939516 11.843605 -14.799578 -47.983673 18.917530 -6.099407 30.704203
u 8.905943 -5.920935 24.503445 -6.878392 33.013294 29.499611 -0.811652 4.221067 -17.649261 22.518822 25.758497 -4.570580 11.939293 -9.291929 -51.257847 11.663611 -24.061916 -33.582321 11.117055 0.494642 10.259454 -7.714507 5.267247 2.336132 -15.270607 8.137912 30.589502 -34.578316 -12.688655 10.773028 8.186256 9.111948
v 35.305904 8.217621 35.492363 6.831892 8.755322 9.237431 1.404331 19.570726 0.937331 11.691635 34.558887 -6.564338 9.953366 -15.727434 -33.935673 -15.971975 -9.479434 -8.733508 10.203629 10.162566 -7.451063 -1.985507 -0.501828 -4.916395 -37.328785 -2.919369 17.895010 -0.419520 -12.837211 24.130642 -20.559008 3.132264
w -22.183517 -15.012685 29.608013 -14.822129 36.557819 23.048239 -16.629740 -16.386065 -25.258272 -23.000355 24.731663 20.995186 -0.716729 -26.885580 -16.835140 16.056730 -25.609158 16.980877 10.387180 28.060181 32.172657 9.176861 -4.655050 -19.036362 -26.099709 0.907404 10.839849 7.980514 -8.681067 31.765604 -15.104528 11.384815
x 13.382685 -14.606576 40.855831 -9.466727 23.876194 2.687335 -12.190997 0.216873 0.888683 3.053200 17.671694 -1.321379 13.405158 -11.056135 -19.843573 4.876934 -9.037870 6.117398 29.705557 4.955757 9.205999 13.686987 -14.965610 -28.655680 -4.661795 -18.031633 25.241133 -16.858629 -14.906106 28.386013 -29.759623 10.266422
y 52.949757 1.249010 36.755505 5.695415 0.832381 0.351543 9.810154 21.389303 14.299135 15.915182 26.233931 -22.051538 -3.327714 -13.441904 -33.961025 -7.615775 2.945312 -7.361880 13.550044 4.666266 -5.288957 -14.276457 5.044983 -18.201181 -35.342079 0.089514 11.922422 13.725094 -24.192719 22.201485 -28.316700 1.648326
z 27.566677 -12.502988 47.061604 -24.740648 4.425648 26.113197 -10.712657 10.757031 -6.018076 0.383602 10.643894 9.113721 4.341277 -3.619936 -44.516071 14.586919 -13.709128 4.831464 24.856590 -11.868690 17.620609 15.633984 1.268728 -22.759789 -23.584606 -10.325801 23.567562 -10.430362 -24.471619 8.044396 -6.222420 19.309656
、 11.607458 6.352171 15.728085 -1.974775 4.144034 1.477524 -13.091460 1.550830 -8.193449 -2.799448 20.681593 8.057492 -10.946259 -12.177880 -16.368160 2.280748 -7.759785 -2.938779 8.214170 7.292503 20.312550 2.830153 -8.377919 4.325566 -12.229978 -9.530477 23.826080 -5.018378 0.368189 19.048649 -4.544436 -0.295930
。 13.513332 14.468309 5.816623 -10.304845 5.763798 3.955987 -17.033863 -6.266659 -18.386227 -8.103474 23.153257 12.262344 -4.152912 -6.986314 -15.775034 15.980145 -5.259021 -2.467726 3.059466 13.918347 36.878819 -5.507864 -7.915999 -10.820599 -3.650634 -21.810913 24.377483 -16.693436 11.737437 17.673704 -12.998587 -8.336075
〃 21.275450 1.944618 29.168119 -0.655565 1.548008 -10.974977 -3.637449 7.219323 -22.511333 0.059319 48.927700 -3.737971 11.464170 -3.598495 -31.399010 -22.052002 -13.480311 -13.087427 11.294783 16.752483 6.761611 0.457349 6.448698 2.876520 -33.171112 -15.315742 23.863413 -3.010279 -11.070925 24.874268 -11.959028 0.149676
々 15.606287 -9.982141 32.630306 5.542077 20.501162 17.562353 -8.440027 10.770797 -7.172319 13.038384 29.244841 15.324412 24.082285 -16.552605 -26.969330 6.824455 -4.437205 6.838622 24.422644 18.143076 -14.062821 -7.941671 13.310149 21.136515 -4.518093 13.528069 26.597235 -19.459026 -6.983607 36.786507 -8.624202 -7.661242
〆 20.068184 19.625742 21.900888 -2.104779 16.862120 1.664464 -12.911738 -5.235842 -19.803263 -15.977371 13.023413 -8.761647 31.143284 -11.057322 -27.991446 11.050404 -9.429967 -5.641672 18.253088 17.157021 18.978794 10.259907 9.805614 -27.596291 -2.822575 2.306373 29.377850 -23.660236 5.235675 42.962246 -27.232746 -4.971098
〇 17.947079 8.390828 -7.624584 -33.401833 -7.410826 5.503139 -48.345947 15.991784 -11.601677 19.162670 17.444662 -4.388247 17.690918 4.817612 -29.404833 4.719510 -6.808928 -4.866805 -13.793574 15.033096 36.560898 29.377283 0.655264 28.451920 -30.236956 -4.456952 33.156666 27.452042 -47.444275 2.506734 12.658491 15.030416
〈 4.416756 18.790945 12.161213 5.680317 12.639565 9.239092 -4.921318 1.836796 5.747920 4.218775 37.148460 1.996822 7.479358 -22.876894 -23.034149 16.131233 -13.756232 -5.994783 23.350430 9.962428 -18.657845 9.375906 3.454996 -2.237119 -12.211288 -5.846511 26.654310 -10.466724 -7.988650 29.050276 -11.070473 -10.676184
〉 18.878149 10.576716 -4.506176 2.597820 3.454445 -24.533680 2.505921 -2.779901 -10.668262 -16.237598 27.984289 10.559869 23.413342 -2.771203 -32.803017 9.240262 -3.269851 -13.426462 10.162456 3.279665 12.990204 -5.907646 -16.395992 -3.690566 -30.934452 -8.003400 10.336135 -22.032055 -0.601009 28.442047 -12.724509 9.298785
《 -5.669635 -10.020926 1.511469 5.164502 15.631364 21.971851 -0.884040 -18.971354 -5.878549 7.443948 28.709303 1.140135 3.695252 -26.942175 -13.550718 23.069176 10.726661 -3.108589 24.162714 7.288032 -12.170212 18.243179 1.119965 -14.537998 -10.670794 -1.290284 26.257217 -6.662226 -0.819247 23.552071 -10.695423 8.002687
》 13.151917 3.587706 -2.635641 -7.835770 -2.309735 -14.512152 -15.069040 1.017279 -16.161863 -30.048227 25.118738 35.565735 14.246539 -6.173205 1.577704 1.374485 -5.583106 -3.835420 -2.391570 14.421471 11.321089 -12.457117 -9.705665 -16.510508 -28.675117 -17.176577 21.075632 -27.771671 34.692917 -6.549359 -24.942949 -9.910899
{ 11.341609 -2.373164 40.346470 -9.132243 4.127671 0.124583 10.569964 14.618675 -3.923532 -19.359051 14.002984 -12.166070 -26.748636 -16.656767 -36.706791 20.094379 -25.608747 -2.512080 4.854549 -2.679511 2.762730 5.100406 33.808746 10.249825 -11.197409 -2.581405 -7.944676 6.905064 -35.945110 18.741318 -2.577414 13.570235
「 -29.398445 5.489705 23.504976 3.365905 4.457385 27.152784 -10.397423 9.606756 -16.538059 -0.988811 33.641018 -6.448912 4.179175 -11.506277 -17.144663 27.863363 9.320208 -42.749477 25.060312 4.910869 -9.869709 8.243995 -12.265528 7.491875 -12.585555 -11.585059 19.463778 -32.878189 -6.749104 17.434240 -4.359257 8.059064
」 4.624711 10.366308 3.295364 -11.205241 23.314693 -15.682194 -18.790136 -7.103579 -11.064513 15.627598 33.439754 29.022387 23.025282 -15.014507 -29.445377 -10.230250 -3.592006 -19.763418 4.690560 -18.991909 56.922554 -9.493607 -8.650455 -16.590788 0.004607 -1.491358 37.746395 -7.346992 32.176327 7.087320 -16.231970 -3.473703
『 -12.758359 9.188085 -11.192577 -3.228987 6.662702 11.281429 -26.542669 -19.605713 -17.178793 35.808140 19.553497 8.900331 8.650766 -40.117115 -38.368385 25.383411 -5.132104 13.462302 19.837988 15.106519 -36.334576 14.850154 -16.446320 -12.548620 -15.523169 -7.129745 19.368643 -1.948674 -30.545876 31.874599 -18.851664 -1.013203
』 17.783617 9.185596 11.931760 -8.431327 7.255465 -11.948833 -31.925600 6.387418 13.238407 -26.008287 46.719700 29.552612 11.247359 -28.451225 2.767001 -15.215901 3.605405 15.077621 9.867264 8.207058 23.249191 -30.519478 -12.949121 1.586688 -22.602554 9.018704 28.631750 -23.985502 14.205062 -8.595085 -19.857121 20.563332
【 -11.109774 7.130474 -3.299146 0.915805 16.627150 2.187747 -15.292902 -2.085438 10.400593 6.137363 19.810038 12.492467 2.216237 -39.982330 -34.901882 33.928555 -26.278133 7.146605 21.432991 8.572426 -36.196350 4.415665 -4.730574 -1.904688 1.470934 -12.624190 23.295742 -18.318254 -16.487965 32.069168 4.449982 -19.525383
】 1.792650 21.520075 -3.463247 -19.822863 31.431202 -18.628855 7.494293 3.905840 0.218382 -7.708287 26.482485 12.472599 41.808826 -6.699777 -37.963799 7.232018 8.497627 -13.578881 -15.651678 -13.317852 35.732460 -24.923046 -28.641478 -16.085842 -31.821404 -12.515429 15.030759 -28.527641 2.197271 17.256969 -10.717217 2.320005
〒 17.078224 -22.294998 29.370325 -24.801332 -8.772445 20.865685 -0.443779 3.114798 3.731940 -19.769487 29.523991 -34.532776 54.444000 -38.921703 -35.145618 16.660160 -22.670467 -23.448311 -5.098516 2.470191 10.629727 13.088270 4.082006 12.810957 -17.610003 7.065048 26.572203 6.851030 -28.966568 8.224247 -42.928993 -15.652632
〔 -13.695852 9.348673 20.777798 7.261069 8.643877 8.800576 -10.313030 8.591653 4.608357 -6.693501 31.972589 -0.525451 2.749243 -30.093901 -23.269592 24.947353 -17.218620 -28.567181 17.817881 6.979563 -14.936729 -0.743136 -9.903689 4.300913 -13.601061 -10.499154 25.887093 -20.164072 -10.528158 21.761841 5.503357 -17.871655
〕 5.285318 11.130067 13.637814 -9.435183 15.132627 -20.893061 5.008157 -8.392878 -10.432552 -3.595606 37.196274 5.278916 29.796232 1.157313 -45.691257 12.875640 -4.132923 -21.094654 -13.569898 -2.202651 4.917775 -14.216423 -27.348877 -7.869316 -19.820303 -20.045311 6.297632 -14.340558 -5.395459 18.628990 -17.104572 5.789519
〜 10.571100 -1.381087 21.422998 -3.635412 9.618999 5.277574 -16.590258 3.017945 -3.321272 -9.214828 29.167076 -6.858244 4.689161 -20.370085 -10.454161 7.659795 -21.823753 -12.181836 9.300602 17.413883 14.656587 12.393396 -20.290541 5.665210 -22.173603 -6.904979 20.472668 25.222088 -7.536774 25.311954 -11.223157 17.505693
〝 1.645187 10.862152 10.901106 -9.753633 1.739158 1.236809 -12.195830 2.202309 -0.800614 7.455451 23.481237 7.055449 4.812046 -17.291683 -13.945873 14.188164 -11.849947 -9.171926 2.769399 6.796458 -0.802264 20.752153 -10.104579 6.886726 -16.557070 -11.163186 20.915169 -2.724425 -10.581115 22.180639 -6.785766 4.551332
〟 12.348092 7.042610 17.090506 -4.548829 7.024158 5.356973 -6.873627 1.052969 -12.882620 -2.167522 20.294706 6.164045 -7.075482 -12.858247 -13.149561 -1.100183 -5.578981 -3.809757 7.831077 13.958635 27.012936 1.615775 -10.252319 0.911500 -10.828058 -6.539509 26.611864 -8.454006 -4.468696 18.345089 -2.866709 -0.252527
ぁ 29.803362 -15.555947 5.659874 -23.260784 7.971523 9.446409 -16.277624 -7.007123 -12.322920 -10.016781 1.725890 11.760672 18.786306 -13.171015 -39.666988 -23.307503 -15.084971 28.147657 30.952122 -9.867632 18.589262 -5.679970 22.682371 -15.725118 -15.516345 -4.857255 9.398031 3.541459 11.695361 35.317879 -4.490416 30.104610
あ 12.333177 -3.894943 -3.332843 -33.833813 -7.711143 32.324512 -26.390194 10.991097 -16.247259 -27.455465 15.713717 -16.764658 49.065887 -16.195492 -49.934597 -22.255320 -7.075890 15.914465 25.533421 15.068206 -12.636621 -6.572627 -2.513764 7.802784 6.866841 -4.947477 31.997980 16.024946 37.471462 -4.219428 -20.275858 -10.512475
ぃ 0.117566 -4.856750 12.193840 -2.513620 14.350522 27.965757 -4.481951 11.559807 18.692198 -10.114756 20.547146 6.408289 -4.437526 -47.636597 -7.696771 12.417932 0.597416 24.908838 23.480616 13.526878 18.110229 -5.811400 -10.744964 -2.314476 -37.727562 -16.887199 26.458269 4.680185 3.813426 40.828953 -25.960402 -1.308268
い 13.016334 11.323197 9.624849 0.773344 6.452470 18.011532 -18.783495 7.548606 8.188412 -7.011090 40.555317 -7.410396 16.467253 7.327972 -8.357795 -8.899650 -15.548322 1.567165 2.474428 12.004814 20.867928 32.604053 -11.203057 -4.186562 19.113853 -11.816415 46.147526 0.395946 -27.478212 33.672955 -5.996742 0.025977
ぅ 17.043385 -14.307027 23.466986 -10.476450 2.298086 22.790642 -30.399992 10.762124 8.270086 3.508894 21.705923 17.008253 -20.009687 -25.852150 -32.881935 37.291702 -0.742798 -11.216640 10.973054 16.820776 32.073288 -12.844044 10.406709 6.559555 -30.310982 38.309845 10.617629 13.817521 -12.915510 -4.876304 -10.604240 -2.312170
う 22.376564 0.917542 26.266773 -29.758541 9.546248 40.595676 -23.259737 -9.448048 -1.245787 31.299723 12.740959 25.700228 18.967993 -20.187899 -13.117003 25.661430 -21.258244 18.966360 2.713870 -4.682043 42.357964 6.135686 10.779214 7.658865 -42.072430 -2.851364 19.199066 32.454456 -19.651800 -0.938319 -9.604050 30.375772
ぇ 10.963401 -6.611981 19.842085 -9.044386 46.823269 -18.236980 -26.321127 2.172321 -16.197639 -30.604282 23.144175 -24.155617 22.775803 -9.987900 -27.977936 -3.467145 -0.064350 -5.182117 21.435469 12.628426 8.377889 3.485970 8.964898 -25.667257 3.479187 -14.082065 9.324462 -0.253325 -2.320289 20.512577 -45.390091 -10.941491
え 0.367806 -8.196816 34.212845 -15.600514 31.964998 -20.573002 -3.223543 -0.280667 -15.681548 -18.432232 31.101662 -6.848787 54.886421 17.743881 -26.543394 26.780823 -23.845068 -5.712656 30.965136 26.162121 -8.755049 -8.339869 0.278428 -26.883816 -40.641083 -37.499126 38.012421 -1.913245 -17.610806 6.427288 -17.337297 2.690697
ぉ 15.637933 -20.204548 5.095766 -20.422022 15.338703 6.397031 -33.324165 -1.806289 -34.155048 -5.893613 0.416249 19.610651 23.096407 -25.176601 -39.826637 -17.638004 -16.573378 23.062531 26.586645 -10.630632 18.904963 -0.616886 13.225269 -11.791359 -16.274193 5.873484 8.944719 3.142129 15.412719 18.916298 -3.572264 27.979509
お 30.356464 -18.870173 -36.764256 -25.421427 6.557878 9.293763 -46.295364 12.516737 -4.828262 -20.015312 14.926255 27.218517 0.116755 -18.887545 -36.952721 -7.741803 22.372519 15.241894 25.859858 9.050217 -2.028789 -10.101070 7.741664 11.041177 17.315353 12.292218 39.248814 6.149928 22.332283 -2.950248 -5.726080 0.234993
か 25.259329 20.599375 9.239823 6.853214 0.568151 2.112318 -29.365437 34.437191 -7.410976 20.172848 32.180481 17.291882 45.748329 10.663241 -41.824585 28.945503 2.293292 -17.129875 19.742090 20.008205 20.765261 -3.051018 -5.721161 1.841518 -34.692284 26.028242 6.807839 -16.923107 16.016449 0.892958 -14.142751 16.431736
が 37.902142 26.630081 24.344559 -12.775905 -14.318830 -6.126897 -16.550186 34.628052 -3.807327 22.182102 36.795208 28.552267 39.352844 -8.452901 -13.761731 28.663414 12.442036 -9.662591 17.937851 32.144360 8.788428 4.698129 -0.949551 -7.015708 -43.045769 14.358809 12.283784 -9.434386 12.707161 -22.729307 -30.386198 -0.806898
き 14.301245 -4.065222 9.069373 -18.114279 29.473873 21.160061 -24.020809 6.067160 -35.620144 -27.050175 -6.321174 -19.630701 37.506527 -51.977428 -48.727970 16.941019 -35.529575 7.907945 18.591475 -22.935543 3.300349 9.449000 29.078463 6.878224 -3.904162 -3.031217 14.465809 6.668493 -0.721406 -16.637920 -5.906515 26.761755
ぎ 18.131687 1.058788 17.127411 -25.502325 31.145275 14.720788 -21.650900 7.980012 -29.270962 -23.823328 -11.477774 -7.498270 39.366089 -51.465435 -35.220207 17.023167 -25.000515 6.508166 3.255965 -23.859953 -0.333119 11.213688 30.943357 8.545507 9.568434 2.863222 10.563306 2.169964 4.265669 -20.484293 -0.876168 20.883955
く -11.042256 -19.288998 33.332310 -0.118541 22.191324 -0.564112 1.025347 -1.432517 0.525816 -9.773281 36.737686 -0.273125 16.278669 -28.804411 -29.136784 8.216921 -17.949240 4.621640 17.246967 8.430257 -1.396896 0.037290 -7.597838 9.356265 -11.582561 -11.292222 7.722621 -1.200593 -25.217535 23.373714 -15.622071 11.998678
ぐ -12.306186 -17.924593 29.367926 -10.315042 21.701689 -1.261531 -4.468782 5.543150 2.297374 -0.531947 33.847630 0.888559 17.689566 -27.268110 -21.753233 10.264880 -15.062112 5.491554 14.109117 10.765316 -6.342525 6.008023 -1.140432 14.665065 -12.665546 -11.014552 9.891943 -5.044171 -25.711994 23.409142 -13.152159 7.875528
け -11.064631 -1.927092 -8.246461 -7.944893 5.244722 10.936064 -38.907730 18.506617 -20.019936 -1.444133 19.227129 41.903809 -7.752164 -3.291005 -41.504299 11.762828 -38.282078 -11.388358 -29.328398 36.701077 1.303643 -6.520737 -0.305413 7.507216 -6.355865 19.170549 26.672356 -5.204469 -45.276340 46.460140 7.371169 -25.620636
げ 7.250440 12.135720 6.441502 14.506359 0.181771 13.543292 -31.614431 13.450408 -19.490103 5.377069 9.286070 35.192352 6.584879 5.946331 -33.327793 12.343625 -35.463779 -41.406971 -10.089263 36.097092 6.442144 -10.202698 -17.216824 23.797918 8.755102 32.861042 18.243437 -10.173853 -51.189713 38.151371 23.682060 -20.420246
こ 9.438680 -27.541971 18.100126 -18.511490 8.056589 -4.920444 -23.365917 23.681055 -20.896948 4.756382 4.153361 -0.258275 37.465927 -31.771624 -49.328278 25.874737 1.123016 14.799003 38.227371 -17.025230 15.105412 -2.849553 25.158308 4.817256 -11.688583 -13.243255 27.742405 -11.624140 -34.179955 -21.216051 4.421472 -17.203444
ご 19.713758 -6.515991 29.701185 -28.038614 -6.252772 16.596975 -25.940891 12.444422 -22.399551 12.066981 -13.953161 8.541266 26.914982 -21.581055 -30.137592 30.239763 -1.528018 21.240894 16.605310 2.239061 18.375004 -8.202274 -6.420261 15.384221 13.164806 -2.375610 40.927551 1.387940 -27.756874 -31.446487 2.954040 -18.651506
さ 9.758468 -33.090324 -10.960850 -29.155590 25.929722 -20.411642 -21.435467 23.169949 -21.493689 4.167360 18.386433 22.541945 -16.733871 -9.040688 -34.827736 29.955137 12.669163 -0.762023 36.259693 7.628065 8.179872 -13.407402 27.721909 7.416777 -8.972227 11.167634 -11.334649 -4.258068 -14.698378 10.222576 7.226796 -4.968499
ざ 7.625633 -25.026876 -10.140009 -35.889530 26.666025 -24.660358 -24.626534 20.023890 -14.918941 13.125835 10.564949 27.641485 -13.319165 -13.475657 -25.617052 33.563301 16.444973 -5.577880 36.084648 7.416213 -0.881970 -11.684905 30.572504 3.423231 -3.536881 14.930123 -8.793155 -9.504920 -17.507303 10.285127 5.985248 -7.502361
し 4.769676 -3.966237 -9.982325 -57.971954 -2.466599 23.401436 -36.508884 24.781752 -0.641042 -1.708147 13.523619 10.342057 -8.376176 -36.494762 -30.341978 11.969894 17.145058 20.780369 -10.798348 33.200638 36.257420 -4.883681 -1.405032 18.680784 -56.139549 -13.795739 19.650434 -10.383643 -22.609512 -7.264202 -14.317987 17.169882
じ -9.948795 -8.792611 -1.252215 -45.530380 -14.424933 23.804251 -25.621367 31.892174 -16.163677 -9.439887 7.045561 25.222073 -13.743707 -36.282803 -18.242657 20.672684 -1.625539 7.006888 -18.898401 13.739853 43.069248 -5.235276 7.178272 21.362598 -58.941948 -15.492089 17.092192 15.217414 -23.550358 -9.948446 -23.606092 16.428328
す 16.819586 12.517732 36.077793 -3.970075 -16.542475 37.139038 -1.401013 -7.841019 -6.838760 7.059830 43.324459 -9.700372 33.180935 -29.968861 -43.622631 -6.973960 -22.079906 -3.677097 10.613070 -6.514542 21.134953 16.741735 25.243948 -17.493382 -15.777555 17.940540 24.456728 -3.710235 -23.796930 -12.212215 -20.632425 15.938760
ず 16.638266 12.561497 48.840168 -10.027937 -13.775494 13.254305 10.518076 -17.962822 2.501800 21.655851 31.567846 3.473702 54.665802 -20.700941 -11.451646 13.611182 -20.017143 6.330445 0.397941 -19.206787 16.208263 29.923811 16.438536 -17.938923 -11.103969 32.408802 29.355417 -1.474150 -30.516693 -7.517384 -10.023075 0.193773
せ -5.972697 -25.997969 10.516756 -49.897179 47.849514 -9.708521 -0.056922 32.106560 5.480268 19.919153 22.373260 26.009409 27.867311 -22.248135 -47.151371 47.294907 -0.160009 29.094809 11.849494 37.410831 -3.704124 -17.042099 -9.370877 -6.962574 -24.745382 19.969557 11.834780 -27.582365 -53.376427 -13.921231 -16.322149 2.691944
ぜ -4.570971 -37.904701 24.876596 -26.140181 14.872988 20.841532 -7.088437 49.663769 2.657614 18.582047 -21.450274 28.432852 18.214010 -51.335587 -9.238550 20.571213 -12.791206 8.020518 16.520906 20.926636 7.349692 -21.070324 18.172606 -7.089813 -27.913456 -21.451719 34.181984 -38.170467 -24.710402 1.131883 10.169558 -1.865547
そ 5.844040 -43.386375 28.935061 -11.906162 43.442051 -0.807427 -33.270966 7.626407 1.461207 -21.797104 19.761358 -4.174587 11.328370 -25.223637 -23.248243 13.045114 -4.179247 -6.573717 22.525948 22.014191 -2.013278 15.871123 -2.025224 1.806560 -29.485788 -6.166776 22.718782 11.964587 -37.292160 7.697250 6.033509 0.334626
ぞ -2.651487 -36.738480 24.294453 -21.408888 43.190815 -4.429334 -33.379093 -0.198450 -2.514592 -9.766015 17.262114 2.744408 10.429087 -29.164755 -20.588692 11.213018 2.336424 -10.709537 15.655871 15.982307 0.262368 22.506824 5.442057 7.979020 -26.402950 4.084677 23.412722 6.511937 -35.573719 0.753648 10.595201 -0.961234
た 25.937801 -3.050993 5.617590 -12.468656 12.627890 -2.552170 7.769245 13.907770 -10.095332 -50.969418 8.881819 -6.875110 50.719269 -42.624271 -43.896046 33.407845 -2.653275 -9.281510 33.927917 12.933049 -14.666563 0.593572 -17.925905 -0.038047 -30.526306 -34.734020 -0.666590 -20.620209 -6.308964 -23.626293 -23.748850 0.532748
だ 21.514671 2.028126 3.390877 -12.876434 14.648447 -5.936763 5.234715 9.223250 -6.077707 -45.013840 2.096502 -2.800268 56.387344 -47.197445 -38.553722 38.057461 4.423599 -14.443049 28.646585 10.440520 -20.896751 5.227664 -17.408911 -1.449662 -28.293705 -29.349258 -0.862698 -19.332794 -5.782101 -22.465256 -16.611895 -5.724461
ち 19.535341 -14.900740 -2.944673 -33.711708 -7.226990 41.615681 -15.574288 4.623728 4.236746 -8.414199 17.406733 10.355182 38.332615 -36.459248 -69.593559 13.707496 21.411589 15.662968 17.037474 -7.288380 19.612316 5.565625 10.191831 28.422665 -18.504894 17.065405 22.585491 9.060131 0.798730 -6.248456 -16.505583 -1.191931
ぢ 14.677500 -7.337338 -2.005625 -36.786407 -6.120407 34.080147 -16.387072 2.893618 7.121275 0.332392 6.538074 19.424179 37.217987 -40.162754 -61.250671 18.893005 31.574718 10.912852 10.270411 -9.324238 11.877413 9.277863 8.213031 22.483931 -15.933807 20.581985 25.493307 6.050150 -0.979199 -3.051869 -7.965341 -1.327960
っ 24.497967 7.077966 22.306168 -17.176662 4.029931 41.305805 -20.815964 -3.771873 -4.829944 15.420721 6.645717 25.891348 -5.573761 -32.497723 -35.691273 29.884964 -25.691935 14.346553 9.084188 -2.304605 35.674278 -1.159555 -4.095230 2.910158 -32.432037 -2.819540 17.950542 21.533146 -15.375546 21.342197 -1.859591 28.537577
つ 4.712543 13.943274 5.443640 -23.293941 -30.967844 15.524773 -29.033796 11.491406 6.571307 17.932404 37.398003 -1.363431 35.788414 -22.369545 -27.082886 28.569248 -8.040399 16.201416 -0.667270 14.529794 47.160091 22.708878 5.056536 32.261536 -20.750122 -18.902832 18.137671 26.130995 -18.723774 14.049744 -14.811376 11.677817
づ 1.683147 24.600672 8.069104 -24.979948 -31.372980 13.172056 -30.388556 6.497987 9.393145 24.190655 26.082447 0.469719 37.109509 -25.003576 -19.356058 35.452549 -1.213256 13.990587 -1.580689 11.861416 38.270699 25.085022 3.720266 26.446587 -13.165136 -13.618175 21.351301 17.627275 -20.035467 13.857334 -16.550817 5.945083
て 12.850406 -31.580267 23.237179 -14.208589 28.155970 -21.644047 -17.240368 -8.812493 -11.230199 -14.018672 30.884203 7.916812 39.145844 -18.329439 -25.775700 8.643838 -28.195091 19.432066 18.263306 -3.907660 -2.420696 27.598648 5.212778 22.672277 -38.505043 -8.212389 20.887255 -5.138170 -38.503017 -13.773403 14.957709 -7.919931
で 11.206790 -29.422110 20.317429 -19.244516 25.151255 -21.560364 -19.540874 -12.397109 -8.368079 -9.348625 23.519196 11.400939 44.509659 -24.346710 -23.519289 9.421963 -29.817217 18.463614 16.445656 1.488040 -4.982161 32.499638 3.194548 20.201033 -33.682697 -7.032126 18.028376 -5.450778 -36.843693 -6.776303 20.403837 -11.638640
と 26.860533 -15.969089 22.460527 -9.642539 26.176893 -6.897492 -13.611161 3.698794 -34.431999 -13.888402 -0.943891 2.078393 5.429394 -43.520077 -40.106583 20.058702 14.577588 10.123641 41.335114 -6.944024 -6.154002 -17.951767 45.471416 4.045885 -1.533743 -25.614208 21.455400 -8.085806 -35.820591 -9.847958 12.533270 9.066948
ど 23.534784 -10.148583 23.521044 -16.790739 22.620275 -9.873989 -19.663969 2.922710 -26.702417 -2.674754 -10.346697 9.281929 16.754238 -46.000462 -38.013126 24.636749 23.126022 10.502129 32.247593 -7.952832 -14.612025 -13.810852 49.503143 2.434271 -0.323165 -21.468504 26.282413 -8.394958 -35.565056 -3.494282 15.060963 4.218829
な 11.083546 -0.456355 -8.929572 -8.298068 14.572769 40.369091 -45.228714 12.438439 10.894367 -13.728462 14.986430 17.726990 -10.295638 -25.552217 -25.882624 23.813030 -14.300210 5.023370 14.467511 44.273148 -16.947979 -25.299685 15.772656 7.588063 -30.321445 2.353454 -1.356615 -22.649218 20.044050 -10.905157 -5.693671 -3.070832
に 9.235009 -20.741331 1.174194 0.702470 16.089865 24.947378 -27.660337 12.718406 -15.862956 -22.456402 31.104342 5.135319 25.276419 -6.135783 -10.845940 4.748378 -38.489975 -3.140240 -0.436758 -14.186074 -0.256383 1.825215 -2.953356 16.618917 -25.196808 -41.097404 49.544903 9.606769 -61.507351 15.596094 -6.140135 -27.709515
ぬ -3.896029 -12.397971 6.972303 -42.879299 14.136919 8.029699 0.017433 18.682112 -4.377574 -34.386131 12.180885 -4.950511 14.147536 12.596367 -5.176704 -7.970371 -23.491676 29.496370 8.157137 47.157986 32.400562 8.430350 1.195673 4.016890 24.855515 -7.953975 17.278776 13.126498 -16.940159 11.543360 -7.436766 -4.302901
ね -8.666621 -8.793399 -6.937447 -50.393360 18.661484 22.517616 14.704439 -9.132106 5.374525 -7.520945 34.681744 -10.962991 15.016125 -17.280512 -13.134153 -0.772538 12.856554 11.507110 10.497313 59.379978 26.109005 -14.964663 -3.992534 38.483723 -19.778238 -16.337183 9.687486 18.044651 -17.440523 -19.503391 -13.852417 -3.802879
の 6.244621 4.026037 -0.380443 -32.831711 4.484145 18.824953 -33.950455 28.094873 8.390873 -16.453453 27.189678 -12.478205 33.897919 20.714479 -29.816116 15.728379 -36.553444 34.945980 -0.984515 21.107380 28.125187 31.365726 -14.261884 21.681324 -2.383687 -8.551904 21.037336 28.528519 -23.686510 13.176315 4.227029 6.977023
は 8.758384 -22.146685 -13.121630 3.223807 11.101961 23.009399 -47.773972 31.438110 -7.436713 -4.878532 4.655924 36.291176 -17.983095 -10.588881 -28.735229 4.749889 -36.170715 1.845629 -7.682954 31.050852 -9.333981 -16.889494 15.139156 0.874543 5.877968 1.283724 15.211746 -5.431504 -43.170143 45.282822 2.432418 -25.042210
| 21.814817 -14.004574 26.752907 -41.464249 -5.414990 -13.946559 16.089746 6.516232 13.540422 -19.777027 5.908875 -3.272852 -15.620215 0.569998 -31.440598 18.353800 -52.039989 -19.636204 -2.733815 0.175557 15.915461 8.786886 26.356277 10.113149 -17.332706 5.848309 7.054631 20.863731 -6.133988 10.622604 -16.976305 -0.449148
ば 16.325312 -18.721024 8.285744 8.723338 1.008419 44.112255 -51.287109 11.476673 -4.393672 9.060711 -5.691997 31.866070 19.365362 3.241791 -22.729700 10.987790 -41.888691 -18.385592 5.350084 36.482288 5.906103 -14.244926 1.147699 8.462919 17.615137 23.274960 25.409231 -23.319687 -41.002537 24.763630 29.365191 -19.800415
ぱ 15.202861 -17.144045 6.224956 8.872804 -0.627431 45.721447 -51.308872 12.054449 -4.051920 7.858011 -1.075494 31.951216 20.769094 6.831685 -23.474817 12.755008 -45.083160 -16.425772 5.605120 35.133266 7.311902 -12.584930 2.189342 10.374887 15.308666 22.273792 24.566587 -21.672684 -39.611618 22.173523 28.102922 -20.934984
ひ 14.435979 17.218977 5.808873 -16.121202 2.496215 44.960281 -43.641991 14.869105 1.509541 27.435329 -12.973940 25.509361 21.090790 -34.518585 -20.597248 27.317089 -24.308380 7.877893 -7.125997 21.663279 17.395752 -0.952827 -9.387449 -3.507673 -29.866505 32.534702 41.632755 2.757677 -4.566308 -1.691988 19.170935 -11.688453
び 10.909286 23.381983 9.647831 -19.301706 4.261854 42.620686 -46.531029 13.391618 6.778364 37.021111 -17.881681 26.387831 21.659586 -39.428097 -13.430347 31.639141 -16.583292 2.372905 -10.383204 19.714775 10.402515 3.005581 -6.712556 -6.689989 -25.111023 37.636318 45.289673 -0.822856 -10.736518 -4.898428 17.617788 -16.156759
ぴ 11.368083 21.105818 5.467238 -19.202696 2.308329 43.803238 -47.008324 9.458762 7.529669 34.273567 -15.905725 24.907076 22.223513 -38.300510 -14.141457 33.433044 -17.349991 2.844140 -8.880891 17.371902 11.581924 2.700927 -4.892957 -2.728227 -28.152489 35.924606 43.449402 0.130805 -9.955358 -4.713375 18.382885 -17.377266
ふ 32.656609 7.616793 16.665636 -18.046881 -6.750224 17.518326 -15.817715 27.934399 -6.131632 -18.702515 34.015087 23.744768 -2.637110 -0.545890 -27.535328 24.457047 -8.291153 11.286895 -3.843326 21.359606 -1.336626 2.810022 13.405831 -4.384570 -46.401928 -5.389223 24.139235 21.236330 22.558052 -9.081993 -15.934986 -13.958668
ぶ 44.747120 19.603668 23.987305 -28.898138 -15.324615 23.372000 -15.271014 23.415121 9.794633 0.611033 20.586939 19.268459 -1.162123 -14.237812 -5.154861 21.384153 7.624653 8.764812 -12.156411 18.956739 -21.978764 -7.773187 17.225260 -4.778090 -37.483719 0.732123 37.862186 27.214586 13.013560 -14.538399 -15.330337 -31.574551
ぷ 45.286507 15.632312 20.982815 -28.318392 -17.219278 24.653694 -14.806186 20.992796 8.861208 -2.583682 21.810114 17.874958 -0.977368 -13.020098 -5.351038 22.865644 5.672341 10.558248 -11.543687 18.813778 -18.945007 -9.000154 18.533905 -0.523656 -40.158119 -0.339261 36.264866 31.211294 12.209765 -14.743803 -14.533205 -31.493135
へ 7.140176 13.287484 19.983967 4.654751 12.050122 20.716093 -1.112948 12.037621 12.469212 -16.535248 45.534962 3.482547 3.648883 -16.167891 -19.396688 5.123740 -17.408066 3.963863 32.131073 19.859047 -13.867098 -6.847018 -11.430614 26.289225 -20.521053 18.230066 28.890989 16.695063 19.500393 23.798138 -16.227983 6.479351
べ 7.542578 10.382918 21.348200 5.137125 8.983078 23.340439 1.116942 5.476767 8.588916 -10.264354 52.341515 2.768795 6.120740 -14.606205 -14.093103 13.684253 -20.093603 0.060762 36.227226 25.085701 -21.720402 -6.588449 -10.060589 21.642481 -16.838669 25.596224 33.252766 16.627747 12.631272 21.132984 -21.028620 -3.997603
ぺ 6.140652 9.935620 22.518440 4.188795 10.058781 21.786983 2.013828 7.764803 8.739518 -12.167747 50.645626 7.110868 3.064810 -14.315508 -15.839439 13.156158 -20.258335 -0.599031 33.527405 23.901100 -21.359472 -7.515253 -11.241984 20.716892 -16.923443 25.876123 31.661671 16.223198 13.898236 22.621317 -16.798620 -3.204058
ほ 22.912624 -22.372810 -14.405158 9.440481 20.498363 48.699173 -52.868279 12.780838 -23.824221 -1.358628 -13.108939 -3.226281 26.451733 -35.183762 -13.778500 -5.267788 -64.378471 3.527893 -10.510756 13.517530 -17.749697 4.261191 4.263745 11.727781 -9.508089 -18.456177 24.009260 -0.246687 -48.652176 34.853607 -11.516094 -30.129885
ぼ 38.909714 1.246140 -0.767593 12.989604 20.643164 47.360897 -56.656765 -2.445275 -19.539764 5.089666 -17.092039 -8.430224 44.978245 -10.073774 -5.854146 -2.836771 -56.417767 -20.066439 -1.117532 19.017988 -4.712106 9.416337 1.831726 8.605192 11.665367 13.759712 19.923813 -21.070318 -39.082928 13.047014 6.439425 -22.942425
ぽ 34.608784 4.121321 5.172236 19.079746 19.644276 58.641941 -53.167999 -1.604074 -27.420191 7.199239 -4.820498 -19.519735 46.875603 1.006552 4.174396 -3.218477 -54.749043 -35.060493 8.044109 19.297554 5.569776 13.565125 6.197084 10.829733 7.558669 8.505216 15.988803 -19.124588 -38.016914 -1.834783 -4.676367 -20.126057
ま 34.245499 -13.498229 34.384289 -1.104992 -1.419897 19.797190 5.169553 15.472479 11.207102 -26.213326 17.012411 -0.213587 41.927521 -35.973312 -40.574070 25.341866 -36.743214 -15.191540 11.230559 7.119146 54.085190 13.237720 35.653572 -1.862307 1.625175 10.116084 25.557856 29.544600 7.618770 -5.265256 -22.331772 -23.515911
み -0.141293 5.521906 10.987211 -30.380440 30.263878 30.150043 -46.261917 -5.283080 -21.658289 -34.802429 23.649340 38.945389 14.929524 -2.713461 -16.667978 19.509640 -23.854412 5.664034 -16.354954 49.461365 21.409859 -8.280528 -10.177604 30.918560 -19.041170 6.229013 8.426373 32.481487 13.283272 23.271965 -21.006941 16.835796
む 11.324170 -11.784007 -26.476261 -44.612877 16.335211 14.945187 -18.417496 7.857681 -13.847118 18.122669 18.828878 4.613776 41.683445 -21.768066 -69.103523 -20.685045 4.256728 4.424511 13.573646 1.694570 14.091883 -6.734458 8.217253 31.824656 6.562040 -10.082430 21.452656 21.218201 -18.485716 -10.235534 1.661850 14.447250
め -4.699266 -3.589659 -12.401583 -50.497856 -1.195106 11.805913 -23.466343 15.877400 8.296707 -31.255053 24.182957 -10.085680 7.723939 18.360098 -14.123724 4.523705 -14.386236 25.448797 -14.412057 49.715748 19.429846 17.510017 -7.066936 3.486561 5.049176 7.696103 29.209097 11.878153 -13.559646 14.305565 -4.377946 16.119385
も 11.421673 -17.649313 -25.887810 -60.156097 26.360130 19.460527 -16.192366 -15.023823 -13.365111 -12.266886 40.626652 -14.075355 -3.343526 7.391370 -61.224926 -6.708901 25.546547 -11.921992 29.766079 9.702967 12.164745 -16.359785 32.348244 6.530131 2.163152 7.697326 3.464646 -7.394452 -16.046865 15.328808 12.740601 0.793728
ゃ -7.712906 1.396213 22.028685 -6.708112 33.267033 26.854263 14.642724 -12.932723 -1.975680 -5.897321 40.132877 17.370729 9.426291 -23.337797 -25.228212 -7.428688 -15.107071 14.607265 -11.969254 15.493626 29.016590 12.179885 13.579127 -6.146278 -12.580495 5.511455 18.705338 -8.862750 -9.213099 21.158388 -7.138342 5.717480
や -11.555790 9.508513 -1.141369 3.455717 6.097691 -2.973833 1.728900 21.613583 -4.332697 22.112661 54.244129 21.982519 41.629539 -23.460394 -14.329006 19.602791 -14.942393 4.100941 -33.044853 -3.564682 19.821342 11.827164 6.367452 19.887747 -24.848978 2.830613 10.597719 4.053361 -5.500248 1.365033 1.332601 16.499376
ゅ 5.064625 -22.420504 20.085901 -8.342010 -4.859990 23.088501 1.667797 -6.668766 9.498188 -8.765841 12.872814 14.976919 -10.933595 -30.028433 -10.404712 9.969118 -35.904831 18.734524 5.198696 6.087571 28.866259 9.592039 9.282576 -25.736221 -25.365847 23.732901 23.873079 36.523361 -1.031989 36.588917 -25.402784 2.396700
ゆ 32.000446 13.513196 4.318486 11.672185 -30.767771 11.286289 -7.947122 -11.697146 12.190426 30.462170 42.716618 3.706212 31.130352 -13.661719 -2.124859 -1.954589 -18.790642 2.928170 7.030684 16.808273 30.184906 28.350803 -15.809934 -7.015660 -6.709019 -1.409129 22.350752 61.298134 -38.217384 7.654511 -9.189045 16.104347
ょ 27.118279 1.666070 35.463749 -15.671675 19.546495 20.457022 14.036009 0.988314 6.495355 -14.087667 4.110245 0.211561 -1.787212 -13.934357 -34.201740 25.426926 -21.704296 1.508817 14.579026 -1.047263 37.774609 12.306229 32.822395 -37.345036 -14.645363 -23.351862 -1.117795 13.175700 -14.707410 21.239048 -7.001714 -2.039540
よ 38.388290 -2.901566 30.864298 -2.025472 5.804051 -3.578671 11.740077 15.333697 15.547381 -18.169395 13.943636 22.242491 -16.701019 -2.246301 -17.258314 35.870399 -32.446503 -21.217709 5.505843 13.057079 47.488945 10.212611 32.021358 -24.666235 5.371146 9.623755 18.703598 27.165871 0.062141 -0.168624 -11.871519 -33.183647
ら 23.642651 -24.584854 -6.453412 -43.839447 0.225009 31.550497 -35.312263 31.683443 13.375959 4.408967 10.873220 -3.902894 -1.262073 -24.152042 -30.827139 7.092052 13.329202 13.681346 18.592213 10.082326 4.109963 0.069906 21.552530 23.624800 -35.091373 1.751845 29.518618 15.724577 -9.317317 -16.083269 -13.085769 -3.617311
り 10.690684 -9.739091 3.309021 -36.808468 9.779511 26.310669 1.448199 0.211574 -1.671525 9.628920 14.696803 35.613266 -5.582588 -34.045952 -5.860202 29.177177 3.139185 6.340332 -13.810719 16.347710 30.744633 -8.682201 2.447501 16.870071 -61.217194 16.973629 8.616921 12.925132 -36.369446 -17.446426 -32.676750 30.656115
る 37.973133 -25.085882 17.823618 -36.817184 24.953651 15.554764 -29.071249 6.216776 -9.818743 3.923908 3.420258 -6.652255 6.434678 -14.094187 -30.099371 -2.738007 14.943429 7.146096 -12.221626 19.460733 19.540243 9.789606 21.292727 3.854963 -27.310490 2.435673 15.026519 24.405027 -11.059496 -0.386711 7.939168 -1.438091
れ -21.646387 -5.521223 -9.987314 -25.042900 52.875355 27.954950 21.349558 -41.414257 1.020655 7.871851 56.998547 17.025763 8.828422 -36.596684 -33.338963 31.129251 -12.038369 26.455832 10.888813 32.116722 7.429833 -19.833250 -16.840128 0.943939 -10.586380 -2.616456 18.559370 27.183958 -3.266167 -5.031013 -15.093044 -18.526215
ろ 41.518944 -28.005709 13.433430 -33.295872 23.372952 20.389414 -36.159355 11.164014 -9.575521 4.275517 2.935204 6.069309 -1.544967 -22.546146 -35.031639 10.798179 15.174647 5.886178 -5.659680 18.783140 20.249363 9.397526 17.647219 17.041357 -28.507938 4.553418 21.810320 26.874672 -12.023717 -6.922012 6.205877 9.514166
ゎ 7.730657 -15.603782 4.811421 -42.615410 18.149126 7.709286 -11.039419 -20.173363 -31.111954 22.700506 22.031073 28.655909 33.337749 -10.058308 -62.158615 7.017824 2.197402 17.101095 -12.292184 27.843285 40.540985 8.696606 5.125663 0.709702 -20.212252 -5.664793 11.261815 0.637306 8.859817 15.050760 -9.310444 15.915173
わ -11.704769 9.637361 -20.386766 -55.946560 11.364719 29.957109 -14.725709 9.769620 16.000460 6.648307 55.334469 0.831879 30.637106 -11.219740 -47.749706 14.459247 18.939989 28.857056 -17.476620 34.778591 13.217697 -7.309512 -7.553653 35.781376 -11.147484 -13.573644 28.093985 7.010122 5.693233 -12.605258 7.684993 -4.380633
ゐ 6.531456 1.869053 14.854239 -36.389515 22.293068 11.101053 -23.999765 7.105135 -2.993765 -23.219351 13.793002 -15.433965 15.628428 3.125062 -11.371559 20.461697 -16.303345 31.165794 16.497198 40.354847 0.712099 -6.689356 13.822300 -9.529909 -3.162326 -20.353334 31.101507 18.436861 16.357010 7.175025 13.472043 0.019224
ゑ 15.066470 2.620493 16.325705 -3.264036 -9.779724 1.757883 6.661037 15.734473 -23.305695 -30.471798 51.856178 32.705986 1.103876 2.117810 -34.325443 22.916016 -29.224884 -21.395304 -4.771493 7.004241 -13.102981 -15.396480 1.225718 -22.735929 -26.525375 40.658371 -3.583683 23.249588 4.243648 9.113529 -21.993673 9.119085
を -6.648391 -18.680567 32.324158 -37.020462 40.612415 12.285480 -4.296312 -1.483398 -34.192577 -11.198697 18.805784 -22.548416 44.059235 -28.967775 -43.121090 -13.020396 -3.906772 16.749249 24.872877 12.140286 0.823236 -13.007484 15.846073 -6.423545 14.703966 -12.520719 17.453379 13.236874 -16.816744 -13.583887 -6.198599 -3.560768
ん 40.407341 -19.582018 -1.612110 -7.852131 -10.262770 -21.224876 -2.927165 -1.942731 0.566337 -25.381252 11.961939 -15.156154 32.221355 -4.599975 -53.136417 8.810353 4.272344 8.073891 40.256027 14.778393 -4.964550 -33.877575 24.975298 6.324595 -5.609390 -17.805368 29.354948 -11.469680 24.086315 29.759930 -4.338451 8.751488
゚ 3.099710 3.556278 15.945490 -8.555560 8.348362 -8.264846 0.916423 5.054103 2.383974 0.983567 32.899155 14.529222 4.024673 -13.191172 -8.897001 13.211897 -3.584054 -12.829384 2.952811 6.185041 4.180281 -1.669748 -24.848028 11.170326 -27.753365 -7.884348 18.577757 -10.871597 2.158779 6.579814 -16.811663 7.184704
゛ -1.201506 0.911888 11.236385 -9.061831 6.719348 -4.177825 -2.509146 2.712383 3.345217 -2.822527 32.039242 12.194880 1.003778 -13.567337 -5.750834 7.213673 -5.924480 -7.512835 -1.397571 -0.906988 3.624714 -4.595408 -20.040838 7.952495 -27.687202 -5.727395 18.851498 -9.755897 -1.880502 8.297498 -15.274443 6.109994
゜ 3.548156 3.736882 16.642141 -8.592570 8.310792 -8.715807 0.846222 5.309467 2.116500 1.077991 33.018932 14.793357 4.303777 -12.972786 -9.472466 14.214782 -3.019861 -13.223727 3.196986 6.174699 3.825638 -1.861471 -24.884375 11.338737 -28.016140 -7.903395 18.542212 -10.485045 2.539732 6.340327 -17.285406 7.078765
ゝ 9.760549 2.048847 27.795511 6.211433 9.021982 3.901137 -11.285978 -3.446691 6.834635 2.094539 29.380869 3.266310 2.284055 -8.328515 -9.151889 6.167233 -20.825779 -8.562758 16.329552 9.277192 7.510478 11.033442 -6.749442 -12.014818 -15.967317 -8.626302 10.160028 7.355816 -0.705407 31.569128 -30.037663 11.132210
ゞ 4.229601 4.851995 21.509665 2.500091 7.762725 5.046968 -11.467440 -0.759424 7.783907 10.832697 30.984461 0.126933 10.079461 -7.594888 -10.347481 10.521217 -17.538368 -4.393011 17.587364 12.383437 -0.726228 15.376865 -3.092949 -13.755081 -10.615056 -3.100921 13.399244 8.789577 -6.148925 27.654587 -33.965137 6.557550
゠ 14.928553 9.482359 32.625744 -1.460188 19.487141 3.179258 -4.399647 -3.892835 -14.741730 -14.484302 15.860053 -18.062071 -7.819192 -19.512779 -25.431290 6.627530 -27.406162 -5.765969 -0.260415 3.605212 5.873471 24.057322 -4.683764 -10.320210 -23.785913 -12.363141 29.768171 -4.072938 -4.898933 18.507076 -21.392797 24.174072
ァ 10.755023 21.373569 8.713770 -5.073623 45.364117 10.244310 -30.534189 14.220706 -0.768421 -43.372398 54.324562 13.862580 -2.357156 -8.896707 -8.532015 23.127636 3.100586 -0.219328 12.585303 3.827153 24.359777 4.793208 6.643715 -25.613245 -1.640836 -9.275972 -2.060669 -9.902802 -6.673299 42.550117 -27.637953 -7.703538
ア 5.153449 20.436100 36.723267 -23.929304 48.825825 5.050741 -30.697947 6.988207 19.318987 -44.995041 24.474310 47.712231 35.365967 -13.679832 8.020602 45.631084 0.287958 -38.280815 -10.787265 5.004959 10.692440 -5.786884 -16.202133 -25.687422 -10.606223 -26.759190 14.159643 -4.811749 -2.002884 44.283379 -20.332048 8.992737
ィ 33.230129 -1.979134 27.432520 -26.792557 -22.699286 -15.618740 9.481968 -0.416455 -10.370132 -0.844768 19.220076 -13.527219 6.016865 -14.420802 -38.060356 -10.441154 -15.316426 -9.542829 3.532029 14.610142 2.871332 2.208248 5.363688 -16.260921 -30.426723 1.882501 30.653454 12.841882 -12.263488 24.380159 -22.600891 -25.241734
イ 6.673356 21.831375 35.784580 -19.140579 6.735696 -6.513159 -12.957465 3.633743 -19.793825 4.118266 38.080021 5.241515 17.169432 -11.408478 -27.446411 -9.894338 -1.010520 6.222494 19.403975 24.259314 -0.999447 21.553410 -3.002822 -0.115914 -21.214401 8.728168 30.444286 12.225358 -24.221741 19.178249 -19.314157 -9.330561
ゥ 7.318559 -16.269814 34.428692 -15.776636 12.960075 31.597683 -14.579004 22.493811 2.620743 14.663527 24.225098 44.451591 -21.578154 -34.622833 -11.955986 48.942139 -19.359184 17.925396 12.703752 15.217196 41.063614 -20.147488 4.836018 14.975666 -38.870117 34.505508 28.078381 24.233587 -14.279460 4.278716 -31.319073 -8.051125
ウ 9.735423 14.888080 26.989254 -2.979602 -1.621362 21.310110 -15.707054 -43.702705 -7.462764 12.551799 33.302505 23.694069 51.597958 -31.992517 1.930188 48.391060 -33.912712 2.901625 0.311140 -29.357536 69.697647 3.264922 17.814247 43.098141 -17.133282 2.791564 7.420245 28.756617 -47.731068 0.145526 -10.395850 8.855989
ェ 34.360424 -16.434870 31.080376 -35.461784 14.590014 15.418053 4.655231 22.824099 6.876123 -5.444042 -18.131577 1.728955 16.445868 2.443660 -36.293961 55.821960 -14.863500 0.674855 42.517826 1.227700 43.112015 -7.359673 -9.222762 -29.133165 -11.559138 -27.449379 40.522617 -0.916439 -41.445503 5.215010 -7.436522 14.692085
エ 19.248741 -9.433337 24.088352 -14.676351 -5.969312 4.630063 3.609416 18.789162 -6.427238 -32.798088 9.791662 -11.807153 40.131302 -8.875597 -43.076244 70.493256 -22.911541 2.139407 26.377422 -15.139273 32.819046 -0.136641 -1.150798 -9.706035 -0.707625 -22.990108 20.762259 4.366094 -39.521278 -12.572086 -13.306814 -24.055740
ォ -9.369061 25.899679 31.263842 -16.242212 14.471764 26.632868 -11.775451 -2.463908 -36.412350 -17.667137 32.607090 -9.962345 33.370865 14.455751 -19.003391 2.528439 -20.101748 -7.844718 24.294756 15.348946 1.581532 8.809429 0.452619 -28.205343 -26.396080 -26.733637 25.260029 -15.107902 0.053263 20.160791 -34.904877 28.403444
オ -9.218057 -11.877542 -11.366730 -5.076379 7.245878 -3.896293 -29.782486 8.931705 -1.340652 -31.028563 30.507654 -6.777334 1.297889 -2.430175 -41.144276 29.267578 -14.200200 -13.963490 -4.072223 41.360600 -13.169596 -17.868172 -2.735729 -13.175829 -12.758392 11.238948 -2.925573 -30.113892 0.359621 39.703117 0.130824 -13.481522
カ 15.291872 9.668496 -18.363035 -33.415234 2.471883 -41.395077 -50.295307 -12.732625 -34.159027 -40.080643 45.262257 6.092925 15.333240 14.846870 -34.842552 10.972831 14.341855 -22.701052 -6.202722 38.443844 35.152462 -19.266489 26.328493 37.602039 -27.196880 -8.975722 -10.757918 19.184425 -35.940994 16.084686 -25.115953 13.895656
ガ 15.412786 3.150512 -33.000225 -24.758654 -11.401711 -44.457920 -38.564865 -21.728834 -32.452400 -27.798115 39.103069 21.104616 12.386833 7.367386 -40.856686 17.783131 21.515923 -36.726093 0.667330 28.791870 28.808861 -10.337692 17.584501 27.808884 -27.036848 5.855327 -7.165544 14.490817 -32.466461 12.424924 -19.083378 15.562370
キ 12.526444 1.375975 7.354528 -36.424282 -22.105234 10.015385 8.002820 11.772445 -7.031294 -16.551571 24.027769 -20.840570 13.412536 -13.886225 -33.030651 28.149021 -26.922026 0.916116 -3.311032 1.861281 -1.195024 -10.371060 22.431461 35.561035 -29.642250 29.856838 -0.730520 55.729156 6.355472 37.134415 -7.235387 -11.780512
ギ 7.529353 11.066596 11.153397 -40.644577 -22.328508 7.768500 7.429513 10.715913 -7.343668 -9.936003 18.885309 -16.944956 10.332133 -17.901869 -29.509386 29.941000 -19.031898 -3.929166 -5.727430 1.795945 -9.882704 -2.737092 25.585649 29.952822 -23.901751 33.567261 1.642347 49.451317 1.740988 34.437634 -7.421730 -12.238949
ク -0.065654 15.742443 28.827356 -3.942911 9.807094 22.403023 -41.319160 -30.626585 18.607227 16.248304 31.141069 2.111821 45.261509 -38.416630 1.885093 39.046196 -34.755516 -2.323722 12.245303 -24.608047 28.880068 -10.192888 7.800285 19.526535 -35.020767 2.659580 13.099282 43.035149 -25.351713 5.057421 -26.652184 -9.835570
グ -3.237122 23.986685 11.773200 -2.934362 28.176611 19.312567 -35.477810 -17.621861 30.777740 25.828674 32.584606 8.239882 51.763496 -34.163277 5.927082 28.295536 -31.452431 -5.193861 22.340778 -34.470478 12.646823 -4.053610 10.071117 2.589552 -23.066330 21.065374 36.245319 15.992770 -34.406784 17.886692 -42.078629 -17.807032
ケ 8.962979 27.439405 3.138048 8.868704 37.345520 0.275807 -22.993526 43.328327 32.560875 16.401539 47.285240 11.888400 11.934930 -12.097426 -12.827146 -9.147992 5.008052 -28.454891 14.841121 -11.918293 26.896912 -8.635271 2.652448 -5.784285 -14.175746 9.711536 14.579495 27.415491 -7.307760 35.420906 -33.139900 -20.214254
ゲ 5.901413 32.901146 5.303670 4.128533 35.535515 -5.936014 -25.545464 42.874615 37.714417 28.111656 39.291389 15.740079 14.909991 -16.060406 -4.325162 -3.149516 10.949956 -31.795078 12.012048 -12.013692 19.292177 -5.190175 3.392661 -7.690145 -9.218167 10.579144 18.978844 23.997639 -12.777404 36.721222 -31.773741 -21.103180
コ 26.719481 -19.562124 1.779959 -35.473061 3.694796 19.482544 -14.373425 -15.909996 -28.314352 -7.135127 1.301287 18.931967 50.556946 -25.396942 -34.269550 40.224350 15.338372 24.852495 30.869333 -16.850430 64.458603 -5.066662 7.252596 22.804869 -2.120040 -24.612282 24.364552 9.715165 -38.991676 -27.275051 -40.556732 13.166584
ゴ 23.081347 9.328774 -0.117517 -15.379571 -1.370337 26.422541 -36.438026 2.032038 -19.789984 8.957983 -32.303638 26.094500 41.840694 -53.846241 -47.229469 62.209343 -17.964441 36.442097 10.522766 -8.386647 33.989525 -26.335205 -0.670952 2.512381 13.905182 -1.660389 17.259798 -25.947622 -28.587463 -0.732918 -2.686144 -24.666521
サ 5.318101 3.893460 8.381695 -19.041023 35.586033 3.091814 -11.427649 27.364071 33.486164 32.692848 34.999134 51.862747 2.585091 -37.717915 -29.297218 55.940308 -5.917184 26.944059 -4.272974 29.266211 36.638077 -15.087907 -4.196954 -7.242719 -20.963428 49.794178 -0.498922 -12.101750 -23.818642 -1.518207 -17.851904 -7.565685
ザ -0.638088 -0.619666 22.974680 -0.209269 35.453247 11.261830 -16.889467 45.978035 39.835491 28.239149 34.171528 43.696774 17.477320 -39.284618 -12.605341 44.135372 3.776235 -10.803119 -0.609042 23.461067 36.908516 -19.138096 -9.723459 -5.567664 -19.421671 44.731274 6.185110 -23.328712 -15.168532 0.517162 3.069481 -24.548141
シ 19.610569 31.149969 15.539188 6.140216 18.092041 12.467951 -35.906574 -6.972683 13.775463 0.613960 25.582296 12.129025 25.203646 -30.357233 -8.850837 26.512560 -24.730743 0.492237 1.899319 9.134655 58.218266 8.249672 -2.419291 -11.908056 -22.222992 -6.555255 2.591645 35.896820 0.065255 18.310322 -11.095110 5.327937
ジ 16.772406 34.806828 16.611376 2.966629 19.001940 9.057673 -40.205841 -9.142543 16.957239 8.271019 18.925079 16.347900 37.582527 -32.981663 -1.317165 27.712311 -23.899025 -0.104992 -1.493611 7.319231 50.236977 10.037985 -1.050555 -9.296409 -17.867439 -6.168561 2.554043 36.625164 -5.033758 19.145163 -8.016503 1.391914
ス 4.757431 35.254196 25.358862 -0.838040 -1.265208 -17.482933 -14.106644 13.836825 -0.519043 -21.490316 36.589725 -7.211383 32.209480 11.589911 -19.181433 20.724625 -30.453873 -24.351179 2.375341 33.378208 -3.644437 -18.339401 -7.640860 -41.405033 -21.682089 -29.564476 31.095909 -4.940303 -0.436719 33.455853 -33.318546 2.945771
ズ 1.462839 30.205494 36.757107 -6.573347 0.921602 -22.620329 -14.303197 3.484082 -9.123006 -16.867729 34.252201 -4.434710 25.517342 0.238609 -15.428590 28.100636 -26.287775 -29.707373 -0.034765 32.769375 -16.671032 -14.864784 -8.927243 -35.630245 -19.917072 -31.427803 29.498468 3.349599 -13.365754 20.317278 -28.096743 1.764049
セ -5.162127 -29.212328 3.975572 -39.432537 61.346935 -1.188482 -2.302827 0.656003 -8.022027 18.048267 39.489887 17.269341 19.818800 -22.164431 -56.935871 42.634441 3.480141 -8.616384 14.071604 9.140257 7.195222 -12.129093 -0.207399 -9.260924 -5.624342 -13.506502 -1.709782 -15.827706 -55.124767 -21.222345 22.538488 9.417227
ゼ -8.642429 -23.431871 6.605483 -42.434364 60.397251 -4.788864 -3.605949 -2.032530 -3.430893 27.069159 33.072468 20.454250 23.428221 -27.296438 -47.558529 47.104073 7.940614 -13.836351 12.570134 7.375262 -1.539921 -8.058134 1.475890 -11.194373 -0.581354 -11.623396 1.038100 -20.024757 -59.271103 -20.884665 24.169947 7.464062
ソ 11.137732 11.194299 20.891439 -7.376915 24.612106 34.483456 -10.131487 -29.848509 17.915001 6.831285 25.845282 27.960016 12.767146 -54.824665 0.260911 35.981720 -0.376472 -19.504847 6.889437 -10.597578 40.057671 -9.216716 -7.531485 -3.813368 -14.191725 14.185645 25.951952 -1.538130 -15.762811 13.004925 -14.006194 -4.937409
ゾ 5.764295 28.647860 7.772407 -0.917957 32.023102 23.222733 -3.168904 -5.771412 19.313639 7.274678 22.610401 27.772173 20.465107 -40.426311 2.151975 28.232304 0.079218 -17.688990 16.851212 -12.852081 15.358582 -13.298708 -10.081480 -15.286169 -1.212857 23.188480 42.641167 -15.470959 -13.122972 24.051489 -36.095028 -22.000263
タ 7.923740 6.590459 15.076164 -1.203373 23.301825 14.971462 -39.469585 -20.508142 19.860659 10.420796 36.539661 7.055404 43.450981 -33.864216 11.745333 24.143173 -35.901569 -17.813889 22.262243 -31.894337 27.275494 -4.094442 -0.370956 4.543833 -31.916679 23.104042 16.942896 33.379734 -24.888477 18.390423 -31.788687 -14.446962
ダ 5.818411 14.603390 4.499800 -3.313308 29.603800 7.036135 -31.720551 -10.897943 27.615005 20.915436 31.418127 9.272262 48.547348 -25.871117 7.318161 22.241398 -26.908434 -13.254373 18.674276 -35.289532 20.389557 0.972548 -0.370620 -9.538166 -23.180773 26.984032 23.421408 15.451787 -26.816051 21.348778 -39.050621 -20.980505
チ 21.264490 -11.486072 28.402885 -8.842834 43.734142 -21.588034 -20.197186 -6.206372 23.541094 -23.051929 23.517336 -3.462343 45.878342 -49.891308 -3.723159 20.211178 -21.131607 -32.570515 -11.535583 -1.519275 42.355759 38.698845 -16.532621 -16.312441 3.124606 17.896347 46.664181 16.777557 -15.750032 32.160110 -18.904076 -9.434015
ヂ 11.673766 -6.381901 25.862123 -10.653910 48.064419 -20.691816 -21.028708 4.681446 17.516870 -16.104162 17.120245 -3.170096 53.347359 -37.782093 -3.434759 31.166481 -17.849066 -28.667276 -12.105489 3.121253 42.054153 46.085651 -7.153244 -16.052174 5.293393 11.735859 22.657953 6.546236 -10.743524 36.669041 -20.708158 -18.951740
ッ 22.585146 5.799266 22.368856 -5.182271 25.340403 39.573666 -4.747323 3.352702 11.042094 2.449006 30.431496 16.679037 -11.174015 -33.263882 -17.482241 27.134998 -16.534327 -0.729092 8.831451 4.086688 26.267437 -9.575807 6.474769 -13.386146 -17.082569 36.844025 24.877726 -4.504384 -27.396683 21.932247 -15.479013 -5.513834
ツ 8.803489 18.913488 24.402992 0.398003 29.190805 33.185867 -12.301905 -20.306921 12.568219 -11.726444 26.281752 32.408276 11.146330 -47.559139 15.284159 42.864761 -18.713467 -16.869869 6.382710 -15.064070 37.879356 -6.260312 4.823653 6.849682 -16.255791 20.310474 24.395050 14.533816 -8.983712 18.755573 -16.921114 -8.755078
ヅ 12.119339 29.833267 18.683310 6.865552 26.386984 22.919847 -8.930328 -14.013735 9.379244 1.857007 25.782871 32.900185 19.389481 -37.793900 18.175060 36.033916 -20.007593 -13.069584 7.812877 -16.154083 26.142670 -2.386896 14.898662 -4.010290 -0.458138 24.046272 33.275684 -4.443966 -22.368134 27.923861 -25.764292 -10.144612
テ 35.677586 16.836266 22.904846 -11.692662 38.278481 -2.538246 -17.022707 -2.088893 27.302017 -29.530397 14.689710 -1.030584 33.370026 -60.951935 -2.955425 -2.828418 -26.976345 -45.024776 -8.467628 -1.947507 17.843876 18.926111 -21.983393 -25.706114 9.452967 -7.206408 35.258839 13.376114 -4.184383 28.462461 -38.715927 21.322985
デ 21.007689 23.920240 24.938288 -17.905355 39.395657 0.743642 -28.350613 -2.160738 21.116764 -19.042040 2.997745 -5.283327 35.339191 -50.615387 -0.845109 9.296283 -24.688269 -41.294376 -7.448180 -1.736272 13.169979 28.950258 -16.939829 -35.797718 11.885161 -8.892922 25.107180 0.549602 -11.759111 23.939169 -43.318233 20.966162
ト -1.667779 -6.097212 6.775323 -12.773811 20.781509 9.623756 -4.861178 0.434806 -4.599068 9.506351 41.256203 28.635912 24.307608 -12.593414 -36.626522 -18.586597 -12.013156 -9.729350 -7.036011 -22.542997 14.803139 14.804644 -5.602662 -9.062958 -13.084410 7.357792 32.554157 0.972011 32.306053 14.615783 -1.404833 4.720179
ド -1.117862 -6.381092 3.662751 -13.526639 17.415808 12.643293 -4.900024 -3.161952 -2.562582 13.767775 40.733665 30.185425 29.702841 -12.173918 -32.355804 -11.617004 -4.786899 -16.156429 -4.020400 -28.174202 12.209664 17.145695 -2.058812 -11.821816 -12.757784 8.131082 34.327507 3.980379 25.902653 7.822946 -5.140417 4.455964
ナ 3.123641 -14.174785 34.446308 -32.051247 7.712251 -20.952763 3.466113 5.554804 35.406467 9.211180 33.296009 35.998383 34.572983 8.137595 2.112227 42.232231 -39.268555 6.425391 14.141214 3.542758 40.298248 16.339483 -18.578848 -21.285051 1.783085 4.893296 26.970663 0.767006 -14.116104 26.889282 -22.674610 7.187487
ニ 16.046282 13.275968 5.519373 -4.733352 -0.835185 -7.615315 -15.616806 23.784872 -10.479105 -27.695892 53.832237 0.616912 5.170333 -25.827538 -54.632351 32.739319 -4.889078 -0.739638 23.130362 5.966454 19.745966 -19.664062 10.683599 11.670209 -1.840881 -13.644549 29.958761 -4.543969 -22.435972 -1.333197 -14.739178 -26.051743
ヌ 38.394833 22.156790 6.577225 -2.296516 25.374025 -1.710809 -23.216494 5.880491 19.591486 -12.438672 21.613939 7.062434 35.680332 -3.304278 -9.398678 20.914433 -13.534450 -17.986052 9.570598 13.180883 5.007026 -18.717789 0.253380 -27.620073 -5.475633 -10.907147 34.957752 -11.403757 -2.085916 54.343399 -48.069897 3.275395
ネ 30.245861 2.043516 32.661400 -18.653242 -14.459572 27.905849 15.993950 5.626318 -0.720246 -3.108531 5.567833 -22.876341 39.955883 -0.766985 -25.078276 13.265367 -14.330489 5.274308 -0.898377 -3.846256 -11.593678 1.713229 20.510956 20.208632 -21.419451 11.235727 29.072554 5.344285 -9.529710 33.622303 -19.572632 -21.608534
ノ 31.465517 35.703003 6.041380 -1.065432 25.496998 7.277545 -14.193624 16.435919 11.731418 13.042608 26.880087 10.172942 25.939550 -14.854780 -18.885159 9.573422 -12.321832 -15.497023 20.015631 -1.709659 10.933193 -1.625077 2.087989 -15.832017 -3.067062 -16.682634 32.814018 -16.025019 -5.663785 51.329628 -45.467110 -27.369576
ハ 26.192198 12.276062 16.207743 10.948530 -1.302384 -1.548553 8.205797 17.088968 -0.746749 -9.279659 32.820354 23.673084 31.416920 -27.022779 -51.819820 29.290298 -4.232635 12.370873 18.517836 25.589762 -26.852736 -2.232747 -27.222343 -8.347029 -33.869781 1.667541 21.942446 -8.113471 39.654552 22.185345 -8.920002 -13.026581
バ 22.878948 12.118222 6.052147 22.202139 -2.911972 -1.557848 1.302906 -4.601563 -2.814154 2.680960 34.854382 15.516552 39.955452 -32.394035 -48.535809 30.277384 5.809617 -11.587059 22.245962 8.172171 -17.617147 -4.327116 -15.131865 -9.344154 -28.322739 8.997262 33.095203 -11.698862 31.023888 31.215082 5.019883 -16.331665
パ 19.509962 10.537999 4.460413 22.135471 -8.155308 -1.479787 1.879041 -4.361493 -4.414349 -0.966291 36.689785 14.467078 40.459049 -34.276199 -51.820889 32.294083 7.884564 -8.924724 23.674202 6.814534 -17.547157 -5.348560 -15.096103 -8.317116 -26.868799 7.882999 29.616728 -11.116698 31.852207 32.125523 6.399464 -19.009842
ヒ -2.823113 -18.881914 -5.559422 -58.702042 41.398380 3.968351 6.224536 37.313553 -4.110094 -7.216810 16.353928 12.239878 -15.215027 -46.956020 -22.943905 18.377283 5.233690 8.564807 35.129768 6.071061 15.181361 -22.795982 7.527097 0.864928 -21.063133 -26.039225 25.443647 -26.561575 -65.844986 -36.137867 2.728823 6.125328
ビ -8.999305 -22.230440 -13.192460 -47.406769 25.877169 6.269164 1.321057 39.285397 -13.750916 -10.600313 -2.736507 23.038752 -18.002953 -47.428261 -12.924295 20.886023 4.943898 -4.260384 29.686037 -8.731188 13.988607 -17.862488 12.670953 -2.073191 -17.119602 -25.073675 34.359085 -16.310871 -64.912476 -25.894258 10.934600 -10.914060
} 38.256001 0.387593 26.698267 -6.286045 0.515700 4.682830 14.444368 27.391836 19.779856 -11.652538 15.963041 -2.330449 -19.416161 2.142623 -23.033998 12.857119 -22.693369 -10.676148 -14.592670 -31.828667 3.043826 -17.468424 27.071161 -5.165109 -23.586432 -8.563723 -8.039452 13.467828 -23.441942 17.643528 -24.464678 0.550217
ピ -7.085336 -20.418470 -13.123136 -47.797661 25.642656 7.069972 1.651164 40.998535 -14.945436 -9.312129 -0.734420 22.610661 -17.837851 -46.137192 -11.949665 19.866283 4.112856 -1.617959 30.524315 -7.702964 13.871236 -17.473446 15.630525 1.513184 -15.486906 -25.551643 33.914848 -18.493532 -66.831909 -26.805416 6.742208 -9.436612
フ 19.018024 6.152307 19.859287 7.516016 38.791164 15.345800 -27.065805 -40.901047 8.998816 7.595479 28.661341 21.660646 28.802082 -31.671085 16.002565 48.913784 -20.879265 -13.004286 2.697739 -21.772045 44.693634 -7.525901 0.793417 -2.199679 -39.382828 7.347238 33.575169 8.783300 -16.994127 17.339226 -16.520197 -12.070299
ブ 31.430067 30.811285 16.631081 3.293267 42.896744 1.986370 -29.281664 -7.036131 14.753289 22.716120 20.138840 19.180071 48.394691 -16.494404 13.726652 32.870613 -15.535626 -16.422529 4.987101 -18.055403 15.231509 -0.449743 2.397462 -23.510126 -19.643589 6.374039 44.123478 -17.352776 -11.326905 26.170963 -35.870998 -34.380703
プ 32.786213 32.114269 14.403463 -1.384149 36.638813 -4.209415 -24.155962 8.538708 13.165192 22.867584 16.573992 12.200482 57.112442 -6.850447 9.332931 31.125898 -10.467743 -20.114332 7.981672 -7.782540 7.753448 0.635532 -2.670061 -19.166180 -25.464193 -12.311602 39.779209 -16.470261 -4.109871 29.699989 -28.530478 -42.593018
ヘ 0.971498 13.739566 16.786659 -3.644363 17.678947 24.272762 -5.015086 18.547829 20.751932 -9.347803 40.628635 5.241672 -3.140434 -12.814036 -18.842117 -3.550914 -13.145107 11.122455 28.232269 17.890108 -5.165818 -5.714726 -15.856326 25.982073 -18.947414 14.688956 34.552891 24.025023 11.925320 33.854897 -19.480570 10.959563
ベ -0.183980 18.065321 17.071878 0.515053 12.083326 27.254433 -5.330245 15.946360 21.098776 -6.711538 42.224079 7.865846 3.514575 -19.263674 -9.123007 3.704906 -15.841218 2.350941 27.653526 20.347374 -16.334595 -5.226744 -14.185254 32.248402 -18.906301 23.140045 35.023956 26.485054 12.666058 27.560085 -11.969957 3.448314
ペ 0.090295 19.766714 16.577326 1.071824 13.252042 26.038664 -2.616243 18.923397 19.018934 -6.805451 43.196117 8.052979 -1.789890 -14.523937 -12.517564 0.683799 -15.239877 3.207546 28.003008 20.788618 -16.237757 -5.739332 -15.414035 29.275106 -18.358681 24.693422 34.773453 25.489571 11.528538 25.321732 -16.180204 6.145370
ホ 44.028118 8.521564 -3.489839 -12.302501 -13.386436 44.497585 29.499809 12.453821 16.806864 -45.993134 34.274921 -3.194345 -1.531465 -21.215715 -33.572315 58.952045 -3.384217 5.901548 10.772822 27.148907 -12.880373 1.306749 30.966953 29.682989 -15.023054 7.442597 10.599710 5.721804 18.464144 29.039780 -19.057188 -25.710325
ボ 37.728157 16.369066 -0.081074 -16.810673 -14.065875 38.924114 29.418566 10.735615 19.570009 -39.099312 25.754263 4.516871 -1.121709 -27.629662 -27.459133 64.586281 7.038912 0.914696 5.059379 24.966658 -20.754181 5.505044 30.608475 23.566446 -11.973986 11.118624 11.438041 4.240279 15.486205 31.323685 -12.505153 -27.408642
ポ 40.917091 14.489713 -0.408239 -14.060462 -13.607429 38.875713 29.816404 10.703655 17.990019 -39.166172 27.032274 2.873362 -1.583040 -24.865343 -27.934917 62.604164 4.029006 2.188589 5.991516 26.378513 -18.436974 4.582884 30.743176 26.542257 -11.558584 9.068410 10.666865 4.610300 14.856444 31.241720 -15.136485 -25.728539
マ 20.180904 -16.095951 25.156036 -21.398817 51.492569 -2.093650 -17.967808 -19.049545 8.499628 13.439013 23.557703 7.994162 31.316271 -29.113588 6.745588 26.346817 1.710492 -22.103163 10.448697 2.101985 -25.293804 4.779271 1.455558 3.332761 -53.012257 -7.506268 33.028824 -15.173953 -24.037268 22.364010 -3.513734 0.421811
ミ 21.076139 -11.748395 2.158991 -8.607613 27.969751 -4.691065 -6.854089 6.132603 2.567456 -12.308144 32.998085 2.644081 14.865379 -25.913006 -27.186924 7.686531 -26.489002 -25.599724 -7.205553 -2.498578 -11.686511 -23.963743 10.194714 0.321550 -19.052979 -29.215218 20.528349 14.069304 -19.776085 2.715991 -25.061686 -0.584473
ム 43.771946 21.699503 5.117468 11.765137 1.739365 -2.418976 -12.843279 -6.083622 -14.677095 -13.590517 25.845495 0.378655 30.970848 -19.163656 -55.244328 19.201845 3.642324 2.498132 25.371355 -12.455626 16.916946 -35.796047 16.076666 11.129416 -10.299699 8.200066 29.572138 -11.024701 0.449862 35.170776 -5.268369 7.579105
メ 16.339682 24.938643 20.765886 -3.037380 17.754711 -7.871244 -19.161432 8.292538 0.695883 -10.145342 9.694508 -16.235723 49.259895 2.634341 -18.863310 10.569142 -19.091993 -2.744333 13.320524 21.963913 19.405399 -2.723125 -15.958832 -34.586777 -4.802869 -17.926020 25.905842 -15.455260 3.451506 47.028061 -45.396042 -2.820231
モ 7.641600 -36.405510 17.460749 -17.228319 11.531371 -2.260996 -32.475613 -18.328659 8.155975 -28.339722 35.786522 22.520203 35.931129 9.808135 -15.586620 10.589704 -6.925321 16.351557 38.013702 -9.207545 1.305277 8.263070 6.507826 24.013327 -60.939438 3.173743 19.870842 -11.174500 -68.514473 1.244740 25.013483 -13.935885
ャ 11.509013 8.575521 18.636990 -2.620100 29.266310 9.935221 -10.393969 0.241537 -1.852560 -0.356350 30.831987 10.115663 25.829000 -33.965755 -29.159376 -15.225207 -20.054646 4.802303 8.341632 -7.939729 4.261293 11.997494 -7.718096 -13.726603 -24.570175 26.404348 18.977865 0.081169 3.763260 18.908890 -13.357052 17.255331
ヤ 7.713780 0.420000 2.873707 -0.933567 17.834684 0.409204 -14.192805 -1.542905 15.821280 -6.985104 58.860165 35.589493 27.551962 -28.784344 -25.267519 2.718365 -1.640618 -7.984011 5.956971 -9.600786 5.476357 1.778144 -5.611559 10.254236 -33.324089 28.734795 -8.416646 -4.268230 5.867054 0.722138 -5.972888 -2.539168
ュ 20.502775 3.772456 26.676756 -8.421588 37.784950 30.442913 -22.980396 39.086983 -11.023306 6.407234 -3.554243 9.446645 14.986655 3.146913 -27.470104 33.155319 -17.152672 -3.193543 53.778004 -2.876115 36.486511 -20.880360 -6.855818 -10.916681 -12.318722 -19.142923 35.594559 -21.025946 -20.586733 -11.953738 -3.686511 13.321671
ユ 4.171431 13.533982 12.952366 6.156988 10.657738 21.935020 -28.386541 38.916374 -12.684644 -2.880769 9.536576 8.460694 46.618393 -15.013684 -50.139454 47.959984 -32.771255 -1.527030 35.696671 -17.257010 7.888015 -15.367719 0.394869 -3.833849 -5.337736 -10.545023 27.804770 -26.620028 -28.580629 -18.179689 -1.586381 -20.825932
ョ 18.064787 -44.696487 8.806412 -36.057518 38.653645 1.808983 -23.290232 12.608519 -22.987410 28.681812 -4.501304 14.843867 -0.379842 -38.393253 -42.558270 52.940041 -9.204790 38.066669 12.756175 9.349676 28.046978 -41.812244 -2.233138 -10.417107 -1.895262 17.556358 21.403040 18.840527 -13.813271 23.642750 -22.800539 -4.472054
ヨ 39.414761 -39.472328 -9.177159 -44.247070 23.911222 15.088846 -16.299583 -35.672363 -10.708429 -7.795877 1.242033 19.432981 35.679344 9.822213 -16.668480 42.454636 24.116539 14.714036 48.846653 -12.959085 67.092934 -0.240249 15.920190 19.753841 -38.707005 -17.634056 29.414167 12.709057 -47.820724 -17.717915 -23.744022 1.088200
ラ 18.930941 34.601192 30.030304 -21.463606 12.663707 29.846638 -21.305981 -18.792864 6.000163 -12.765526 12.788673 52.408428 -2.726725 -39.990368 -8.964340 22.590490 -26.294739 -17.502424 -3.085618 -12.129354 48.734306 -10.854445 10.055252 -15.097975 -34.932735 -12.451874 20.431337 34.743690 -18.286747 6.877540 0.500898 51.641121
リ 13.560599 10.765046 1.420066 -34.939091 18.557133 37.103893 -11.209854 -3.326815 17.557455 12.267397 26.612284 42.100197 -20.777542 -57.664940 -2.517681 42.659603 -13.901360 16.739002 -0.932134 14.109455 27.299143 -14.561148 8.988585 -5.227298 -32.446613 19.166206 23.159880 -8.215502 -40.704651 -5.552906 -45.261795 10.022346
ル 21.036192 -5.824148 -6.823372 -55.596413 -26.850080 -22.591499 -4.751350 -8.881561 23.372686 -34.433247 17.700937 16.932745 15.087739 -15.605223 -30.574242 31.755207 -25.938122 19.714052 -3.816519 48.862789 17.557365 1.368024 -1.105783 3.458782 -47.262592 5.946274 14.918023 3.500789 23.481321 -1.954988 -25.573599 14.529335
レ -3.698014 11.995424 7.148407 -8.314497 -1.911434 21.566620 -23.543043 24.081419 14.003021 -5.516003 19.272085 19.386274 -9.219974 -48.064236 10.296313 18.231304 -15.908191 3.386934 4.099259 14.736305 62.770279 -2.415635 0.112474 -0.860056 -44.879852 -10.130235 29.838800 15.290286 -9.269554 30.757792 -21.999174 4.421023
ロ 22.280706 -27.753553 3.267616 -29.235529 -24.815264 33.873966 -34.431946 5.005500 -31.846479 -12.443606 14.940657 2.204969 52.747734 -4.468729 -17.407600 24.105032 -3.175399 -2.376231 20.008734 -26.966698 48.496330 19.569439 11.028932 27.025927 -5.095652 -34.635479 57.349354 25.269613 -52.582275 -24.577143 -6.055688 -4.268288
ヮ 9.181325 -9.359932 14.630661 -19.263554 20.330021 27.685179 -23.923601 9.493360 6.607241 9.649796 24.756212 45.346317 -44.960419 -38.374588 -8.351949 46.028606 -5.303762 4.441291 4.532502 21.194067 38.519135 -18.435287 5.922101 4.097795 -35.388638 41.607296 18.974951 26.021431 -23.554323 1.861711 -37.468655 -8.177244
ワ 21.672966 9.142127 13.650955 -13.167811 10.769178 23.301037 -48.097332 -39.825867 -2.153676 23.533024 21.823616 37.522400 11.873648 -37.434292 17.188818 47.028442 -13.121604 -31.332067 -17.243853 -0.875727 51.225857 10.001753 2.217835 20.654743 -48.641895 -18.125088 25.955929 49.579224 -47.995483 5.370487 21.799940 13.770182
ヰ -7.577469 -5.948750 16.049736 -6.901071 8.976504 44.152298 -9.270765 -15.246808 22.833664 -25.354736 19.437441 15.251637 91.393669 -38.280918 -37.647884 -2.086264 -16.257870 0.469008 15.687182 32.966686 -21.003464 -4.842029 -8.167458 31.777037 -19.257481 1.706703 8.264549 -46.334869 3.423303 25.122141 3.734512 -29.225967
ヱ 43.556332 -9.783893 18.207151 -15.220960 23.138277 2.572256 -3.026446 6.605579 -7.380253 -12.839499 -3.192748 -17.877779 42.407051 0.609471 -23.328550 64.712158 -17.762419 -5.873106 31.171141 -16.161568 11.409794 6.251805 2.544058 -19.212917 -21.266273 -15.607393 32.825199 -8.702576 -45.887547 -8.529840 -3.827705 -33.605583
ヲ 31.799265 -4.227841 29.923412 3.208149 50.850079 17.069876 -34.844776 -37.916924 0.528908 -10.863886 21.355032 1.158583 46.674553 -48.864227 13.347576 38.580055 -23.444077 -21.495239 -8.559669 -12.976168 49.152382 -3.508243 -3.386830 -1.582266 -38.536377 18.330675 31.239489 19.738567 -19.303762 13.648376 -24.429499 -12.723391
ン 17.645372 30.772497 17.403454 12.997718 8.545675 3.259170 -30.192667 -7.310067 2.590462 -0.023036 28.543175 15.859792 22.531023 -23.306133 -5.369770 39.612850 -16.080555 2.213986 5.176238 6.861467 67.481277 -4.046341 -8.169121 -19.790905 -16.624523 -6.883449 6.166407 21.568327 3.599809 26.405062 -17.770771 -1.845851
ヴ 2.846279 24.037193 33.122261 -5.644560 -3.987438 19.509686 -15.775961 -41.374954 -4.936632 19.275303 27.102930 28.306768 50.545223 -34.540760 5.497835 50.983013 -27.023046 2.085817 -3.469147 -29.601101 61.251938 7.289068 17.782696 35.082066 -11.018028 8.800439 10.284952 23.138582 -49.824112 0.499237 -9.227322 9.365514
ヵ 5.968689 13.896960 11.448428 -37.257011 21.424257 10.237076 -41.185070 -31.884018 -29.695557 -31.053234 3.600074 15.128294 12.045156 -24.388535 -39.311184 9.268023 -37.396374 28.798471 -1.605994 9.448231 24.863623 -33.201832 12.123355 -1.924510 -31.468918 -22.282763 7.480348 -11.543301 -17.850248 40.664795 -4.599361 18.453733
ヶ 39.357285 26.924833 31.330774 -1.139816 22.635731 19.254524 -1.613112 1.637673 8.149972 -8.284173 27.122316 -9.919490 28.988014 -52.595036 -9.502941 -16.267056 1.492746 -10.924529 27.368813 -10.334997 19.963573 -2.877863 -15.693909 -6.510491 -11.390670 3.391978 29.501314 29.798813 15.600081 14.988069 -40.118435 -9.006927
・ 11.631375 -6.844321 28.863295 -8.394588 4.567924 -4.840674 -12.290518 0.410650 -7.080244 -14.884407 27.884569 -0.954925 -8.026827 -4.042263 -17.767899 12.599380 -16.172894 -12.655971 10.319646 9.493990 5.122869 16.289974 -15.122994 -5.991128 -21.943264 -8.480567 21.771524 -0.308870 -8.548153 29.466455 -21.669325 3.815149
ー 19.545179 -4.674997 17.380323 -40.470390 9.158778 19.179939 -3.789689 -1.927135 -8.844847 -8.604122 38.178913 2.721898 -1.594679 0.539428 -7.350987 0.233280 -9.472921 -12.108565 35.352970 -1.124400 6.274617 3.902708 -24.449202 -3.867847 -22.640659 6.470635 -6.910973 3.867044 1.956831 54.509167 1.298999 -2.463705
ヽ 6.106039 -3.016442 29.680910 -1.531370 12.603931 -5.714947 -7.668503 -2.209399 -3.344668 -2.161992 29.055380 2.497937 -0.979986 -8.246258 -19.032436 10.946074 -23.754364 -10.464494 15.079192 14.913645 8.623443 9.642430 -15.898457 -6.907442 -20.684301 -10.062291 16.290207 3.415802 -4.620095 24.257101 -24.632956 14.637299
~ 14.023170 -4.000639 27.840223 8.367814 10.708463 11.578702 -3.717400 -17.101233 -1.587781 -18.545540 15.654805 5.358537 -7.212438 -24.201883 -26.102592 11.974895 -4.492930 -4.145206 21.631603 25.938627 4.130174 7.463537 -0.050112 -5.294612 -32.767399 7.364392 25.715580 -13.071703 1.412677 40.841106 -15.672945 0.297357
ㇰ 14.588975 -3.116584 34.561100 -0.635985 19.487074 32.826336 -16.756365 -1.486912 7.309861 21.165131 36.691650 31.236637 7.807441 -33.631859 -15.346691 30.460417 -13.817627 7.060347 27.537321 4.711293 30.845459 -15.445851 -2.979201 5.568149 -5.354467 43.644672 32.519485 14.092265 -14.904523 26.568762 -19.373911 -10.433574
ㇱ 9.181621 9.324879 21.137568 -8.442957 14.777506 18.931496 -19.123671 -5.207090 11.928335 0.483543 18.197531 16.396734 -4.288924 -16.312813 -13.880293 24.418869 -11.222462 16.808697 8.969927 2.329922 55.859245 -3.340456 -4.243257 -11.818892 -21.949732 11.690982 3.937593 31.418009 -8.328896 14.805437 -6.271150 6.174067
ㇷ 9.150147 4.121893 15.809836 1.967997 36.498714 11.462317 -23.813505 5.034355 12.153982 8.932309 34.645859 38.361488 -21.718966 -24.955570 -19.740160 46.395096 -4.946278 -4.662408 8.579849 1.222481 38.808773 -12.329819 0.104948 -4.066797 -6.212080 39.869133 18.106657 13.678766 -16.719503 16.931034 -30.332987 -16.234676
ㇺ 23.416605 18.336271 9.473233 -1.728879 16.502001 -3.129972 -23.159647 -0.794347 -24.594250 -17.799446 34.724472 -3.596007 13.275025 -2.965530 -45.023540 9.816428 -17.490980 -7.191219 24.265865 -0.170502 33.040306 -22.729860 11.714689 0.370986 -14.837897 -5.463087 12.810750 1.722926 -19.403887 24.030571 -1.056877 1.462115
ㇽ 13.525552 0.315460 13.577075 -22.530136 0.146141 -9.252934 4.163265 -19.979219 1.883158 -27.126198 11.632668 -15.156772 21.981329 6.423680 -58.904503 33.983124 -30.711975 -13.810088 1.446889 30.120419 37.708759 1.127935 -5.344208 -4.073460 -33.723145 9.499206 -5.256557 21.787010 3.084400 30.510914 -13.455812 20.044971
㈱ 5.615204 9.512456 -12.791800 21.777138 28.142647 -18.630701 16.335167 0.120594 -2.935215 17.805920 32.553150 -14.450624 45.307133 -11.407789 -8.970210 5.894483 26.237274 2.360770 -3.409245 24.711584 -1.804693 7.205300 21.116039 -21.728392 12.969470 2.393261 -3.039020 -14.577968 9.792172 14.465599 0.552113 8.640547
㊙ 9.307473 -3.333854 -18.175438 -12.576484 0.742156 -0.530414 -10.701632 13.990993 3.003461 18.118925 9.894503 -10.722796 26.209358 -1.128664 -36.973129 -11.873401 -8.413495 9.972721 -17.527269 7.538595 7.302167 12.764004 21.359621 -5.387583 9.581564 11.958769 -8.519367 -1.644316 -6.347733 17.394266 7.333436 24.662933
㎏ 28.608774 -35.570217 16.574444 -15.431669 -3.130222 -0.883391 35.872387 -32.716160 -20.382448 17.058933 9.389472 6.288780 24.724125 -17.856472 7.831809 -1.758506 -24.039051 12.562456 28.171736 37.573784 30.056288 0.092246 -12.809669 14.794470 16.871038 16.690044 -9.718394 6.553048 5.732603 3.610441 -30.936171 41.693481
㎛ 30.394205 -19.950127 14.043228 -4.958723 -38.475285 1.554320 -27.982969 30.224291 3.866260 -38.469681 13.130182 -22.189316 8.256048 19.891312 8.702478 -10.909799 -45.295532 3.823793 6.360286 55.665916 13.144677 -7.720439 0.304128 -29.660238 2.345826 -15.456250 47.181404 16.976822 28.978031 20.827255 8.656752 -9.202574
㎜ 39.469173 5.415957 -5.606796 4.688561 -11.427677 13.334113 3.869818 11.174823 21.808172 -28.868179 14.872366 -40.196278 20.310167 -11.434317 -6.009687 -8.724669 -23.446558 64.775772 17.982512 46.479008 9.918962 -11.436533 -31.039324 -34.621235 7.074906 3.013980 18.835913 22.816776 -27.429024 20.664288 29.493927 17.367430
㎝ 33.644489 0.161844 4.496442 -13.508446 2.184087 49.269707 -8.217474 23.635466 27.413015 -3.952426 -12.989134 -38.087429 10.546747 8.912462 -4.712384 0.733170 -54.395649 3.724108 34.707199 26.630310 30.704529 4.542173 -1.132412 -23.947634 17.801260 -1.062090 31.955328 6.248634 -4.763386 9.946736 21.151209 31.261414
㎞ 56.661686 -0.449727 -17.362017 -3.846324 -32.200115 21.334665 31.341692 -1.012511 5.045789 -10.061746 -1.463076 -38.403984 18.390047 -5.412974 -12.983259 3.535548 -45.467175 -5.440121 19.144796 43.056461 16.577194 -7.859843 -1.499955 -21.037449 19.901220 12.838562 19.917950 -26.713434 18.407259 -3.520889 41.486336 20.608402
㎡ 62.994366 12.071107 9.319636 -31.461611 -7.707593 36.198429 5.298819 -19.962410 8.595226 -15.184736 -1.500051 -8.572331 32.590374 1.509409 -9.883373 18.286268 -1.412389 15.547340 17.151566 16.709267 3.913021 30.391520 -8.173271 -18.050982 3.076768 -26.985214 23.863306 29.077660 -25.465973 32.967827 -37.020592 29.005238
㎢ 36.820961 -4.124772 -4.290485 -8.529312 -29.463732 16.624233 25.195028 -2.948476 22.317808 11.747318 11.112966 -24.468885 35.994602 -7.755285 3.828642 14.158059 -36.655155 -14.452814 12.572179 37.872044 2.753448 1.490992 -6.853191 -5.723564 22.690218 19.672230 21.907700 -29.331181 5.701128 8.472191 39.948540 12.004918
㎥ 60.583561 8.819852 10.127347 -38.246407 -19.855421 33.599552 5.947716 -8.024432 21.014467 -12.085601 -1.419028 -24.775114 41.881695 6.457864 -2.028696 16.961058 0.338739 -5.428020 20.587549 17.627048 2.511831 32.536282 -3.734377 -16.065557 6.599330 -28.253382 41.516224 19.557823 -17.519783 28.981466 -21.904951 22.034634
㏄ 43.889488 14.187219 20.439322 -4.536851 25.890614 14.852476 10.834496 12.759131 4.881474 1.582921 6.675150 -5.742529 14.723885 -35.281948 -12.408034 -12.642885 -39.577934 10.195291 46.248924 13.166075 13.294138 0.796934 -27.340628 -20.210073 14.678335 -27.611401 43.825809 24.272022 -37.154667 1.235382 3.814628 12.850128
¡ 36.119007 -9.467291 31.379543 -27.283625 -6.664875 1.448551 4.535633 4.452284 11.053207 0.985211 11.992793 -15.938157 -28.413143 -2.160955 -32.441177 14.556506 -23.770920 -5.607232 0.803618 9.316176 6.717235 -9.495398 17.793589 -9.362564 -23.855337 -3.663741 5.900764 11.262132 -30.140694 20.513105 -13.993999 3.682900
¢ 1.624873 -25.100409 40.550247 -18.059530 -3.374955 -12.102056 5.994163 -9.681008 -4.087612 8.409385 27.367651 -3.093174 2.802177 1.630978 -39.592194 -0.358405 -50.312092 -10.957153 -4.893214 17.096474 19.257639 -2.405229 28.499996 6.999360 -11.826715 26.031975 6.671170 7.345179 -7.344425 24.074421 -1.341921 5.919240
£ 28.634851 -25.248207 40.160141 -28.790174 18.260017 4.834419 -39.985558 8.859321 -30.197580 -14.196619 24.220329 14.609127 11.340330 -13.185827 -25.107689 6.822524 -21.293205 13.495399 10.689109 -16.007936 22.192808 0.864134 5.425355 0.596372 -19.073208 -6.360191 -1.856497 -2.285594 -41.416260 9.529249 4.512050 8.080990
¥ 20.568567 -18.975050 27.337051 -21.104540 -17.277847 12.175159 -13.044020 -17.015137 9.654900 -8.659332 27.097988 -4.210001 16.855692 0.216527 -30.763884 -9.455585 -8.308988 -16.869520 -1.513218 14.151533 -2.916712 -3.115778 8.625111 -29.454935 -44.679405 2.105392 -1.911546 5.768363 -4.475801 32.028210 -9.510583 -9.870716
§ 13.743629 -7.105212 40.770580 20.703630 18.657400 -1.133199 -11.539709 -2.384946 -13.262384 7.014071 12.689920 1.597856 -1.576938 -1.537853 -19.464775 -13.461808 -16.182777 -10.969543 4.746029 -4.516286 -1.392659 -11.243341 42.487701 -15.919360 -1.978865 22.125929 2.831619 -11.794883 -1.091433 8.332591 -10.613785 25.015446
¨ 5.140155 2.427244 20.655821 3.268569 4.695715 -1.200181 -16.479624 -8.477942 -3.017972 0.841468 30.126005 2.935549 -4.006979 -10.200905 -14.090493 12.232844 -12.644718 -12.348330 2.227173 -8.943380 -2.790833 -0.887871 -2.813223 4.693534 -26.441614 -11.934875 23.739786 0.334976 -15.771093 16.273335 -11.089842 10.117308
© 21.482100 -12.500855 0.586789 -14.210771 3.546201 5.867887 -29.959227 18.700747 -3.966096 29.417526 19.944790 -4.052989 16.815628 7.976755 -29.824247 -10.909443 -10.449564 -0.441116 -4.637860 20.997852 33.485184 4.929143 24.494890 15.656943 -3.275783 -4.625132 13.716430 25.731014 -17.564274 20.505274 20.940992 31.528839
« 14.090768 -5.992719 27.769108 6.138115 13.956201 5.096080 4.018636 -8.575284 -3.066482 -4.212820 23.399763 -5.231413 -1.327792 -15.885460 -35.891083 -5.392005 -23.349344 -1.973826 9.725000 20.813957 -1.054633 17.334734 7.624008 -7.552355 -23.387344 -2.144889 3.691050 -0.958819 -9.084291 39.718254 -12.991819 2.000708
¬ 8.339308 -17.465281 17.802633 -15.740310 13.139650 4.769698 -5.112532 -12.240250 -21.608358 -8.374739 27.698210 -10.265140 -7.011192 -29.059738 -23.353168 25.604034 -27.155415 4.937018 17.776690 5.137636 -5.615269 -11.592161 -15.258052 -3.812688 -21.850552 -4.537094 3.943795 3.879746 3.678225 58.137596 -8.474235 1.845906
­ 15.336740 -6.561101 24.100649 -18.420708 11.882450 5.133446 -0.390017 1.692432 -26.014103 -3.224770 37.547966 -8.293052 -7.500766 -19.644619 -19.481129 17.036816 -16.669931 -6.730663 13.538580 -4.663817 0.019850 -2.656980 -15.768416 -4.440700 -27.391726 3.073750 9.627821 -0.483299 3.604999 51.940662 -10.952947 4.569704
® 15.493579 -18.325293 9.619075 -15.607264 2.206268 7.192770 -39.148064 22.649899 -17.717455 19.026468 26.308203 -4.596558 17.362703 12.104973 -19.794758 -21.747574 -22.550030 -2.957267 6.751188 21.654148 28.613255 6.852516 21.706671 10.582427 -6.206907 3.576754 6.482471 29.588448 -9.467778 17.678904 15.736944 35.296951
° 8.845841 1.766990 29.590855 -3.659976 2.166767 -6.768175 -17.745651 -6.695959 -4.441270 -2.870139 32.445709 -4.463429 18.344278 -8.597511 -25.346151 18.955462 -1.825359 -16.690552 18.892458 -8.258474 -4.312528 9.655609 0.713673 6.405668 -21.558617 4.447939 19.608780 7.424606 -5.474092 10.846960 -25.865082 7.507413
± 10.228250 -21.266073 27.815924 -12.709952 29.515118 11.891291 0.564788 -4.890273 10.637540 -20.812584 22.079376 -15.791059 6.824666 -13.564622 -34.652832 26.360527 -13.655606 -5.107088 11.360242 14.837834 30.363773 -1.536717 25.323561 0.409167 -14.888242 -14.522879 12.675515 14.376267 -16.019964 41.632065 -21.130251 -13.296825
² 6.027457 -8.159591 29.247210 -14.328714 0.726843 -9.313059 -17.063013 -11.220338 -21.970713 -4.709451 30.471058 -20.019672 1.220954 -3.880115 -5.606111 18.511381 -10.641816 -17.164259 8.558121 -6.878751 -0.319773 9.858954 -2.886399 -10.120592 -30.314587 0.411033 25.843542 7.379758 -15.781844 21.331181 -17.371778 8.683819
³ 11.416832 -1.383989 28.530739 -9.153690 1.295056 -3.492171 -14.128637 -5.490961 -11.098041 6.535161 37.081608 -7.674352 3.694690 0.725938 -8.393156 11.499266 -4.396830 -10.083641 18.366573 -11.706884 -4.630955 3.112141 2.122910 -4.447119 -32.320263 -1.655529 20.317545 5.288953 -12.203925 21.070827 -16.250002 6.951032
´ -1.617221 9.726441 21.055187 -2.147693 -2.139645 -3.817585 -1.428600 2.020346 -5.330196 -7.259496 30.618330 8.889318 -6.826607 -8.113767 -17.532501 15.439123 -20.267580 -6.535587 7.692530 -11.077364 4.506111 11.876984 -2.277009 15.709537 -15.724404 -8.013083 15.454034 -2.118484 -11.584394 15.915450 -14.807444 12.723045
µ -11.664348 11.251083 39.066589 -2.644454 46.000931 27.576069 -3.133963 -2.836871 -1.864711 24.676416 33.330982 -27.610437 13.427932 -11.914116 -29.915531 11.672065 -3.385957 -17.442053 1.057472 13.446173 25.191357 -33.235996 9.093739 -16.693333 7.706517 6.654767 18.393707 -27.024761 -0.180149 23.891993 2.947250 1.341513
· 6.738964 -4.863299 26.119192 -5.242046 2.013710 -0.896494 -11.347886 -0.432897 -4.951783 -10.769320 25.073694 -1.184666 -10.648854 0.097368 -16.516895 14.190139 -11.374742 -6.143261 7.771309 7.997454 5.346409 11.952604 -12.823904 -3.829032 -20.021965 -15.679775 21.883074 -5.591464 -10.047038 32.056377 -17.864725 6.399274
¹ 4.794944 -14.167459 40.066490 -18.316883 13.807522 -9.871554 -3.913938 7.666048 -6.869905 -21.896471 30.526867 4.556609 2.874678 -3.432415 -19.317286 28.255543 -40.919918 -4.772112 9.825432 -13.863749 11.001240 24.307720 -3.328197 6.635930 -15.783552 -0.111678 13.930289 20.816050 5.395993 28.298563 -9.960279 16.138126
º 12.109003 -2.050505 34.368938 -4.341142 6.449242 -3.108581 -6.865084 -2.081544 -9.833951 14.624724 37.703831 -12.672727 21.823198 -4.716593 -29.570824 11.262419 3.037201 -24.447340 29.730852 -12.057737 -7.437600 -2.389215 -1.814252 3.532107 -24.598513 0.986930 18.518589 3.855875 0.146519 23.459459 -25.131868 5.884054
» 14.827911 5.710412 27.796991 -4.469324 19.937614 13.195969 -5.021079 -2.967180 2.472125 -8.853586 32.229588 -13.098561 0.262350 -8.635520 -21.463997 -3.752546 -21.352917 -4.492174 1.013938 18.742704 10.677767 0.979979 1.123442 -11.882115 -25.276947 -4.777374 17.807348 -2.524623 1.612960 32.912514 -17.530682 -2.536577
¼ -21.504894 -32.311184 14.058634 -25.389063 22.540071 32.397266 5.586167 14.038481 -10.758899 -25.879896 33.205681 -14.528913 10.399430 -14.799809 28.748837 0.312706 7.595768 24.757582 -13.774102 27.147636 37.265453 18.629240 -7.323410 -28.400370 -9.478086 -4.201416 39.481358 1.272596 3.938369 24.761295 -11.358897 9.896053
½ -24.434654 -21.862375 6.762761 -25.336924 26.503983 28.346537 -12.676067 10.651757 -13.501331 -29.155245 25.151937 -14.904465 9.594131 -36.209270 6.218257 7.789750 -9.647359 8.764183 -5.198539 35.847111 29.814363 16.862446 -17.564512 -19.953268 -2.133267 -14.400395 36.026058 -4.380616 -15.094965 8.031734 7.004308 -8.674623
一 22.337683 -1.755753 17.749546 -3.811190 33.619663 1.277043 -22.736563 7.681690 -14.779055 -17.718477 33.363152 -29.293701 16.935638 -46.926273 -14.962859 -3.241619 -23.523029 -36.579296 -7.321733 20.308382 7.363915 28.495884 -21.520563 8.957632 -7.471522 -3.564833 11.040553 4.532488 -10.792867 13.046577 -28.348619 5.472099
丁 -1.121221 8.247111 14.251079 -35.409588 -23.136454 -8.369123 25.937243 26.434361 39.333393 -19.817911 4.532249 42.144455 -4.258791 -17.470360 -33.620613 39.827034 -21.185383 -51.591526 -23.308535 -49.403301 11.861755 3.270019 5.550790 -14.031441 8.890793 10.509010 -0.467534 28.470306 -28.068260 -13.045216 -29.604113 -2.306907
